{"learner":{"attributes":{"scikit_learn":"{\"_estimator_type\": \"regressor\"}"},"feature_names":["Company","TypeName","Inches","ScreenResolution","Cpu","Ram","Memory","Gpu","OpSys","Weight"],"feature_types":["int","int","int","int","int","int","int","int","int","int"],"gradient_booster":{"model":{"gbtree_model_param":{"num_parallel_tree":"1","num_trees":"100"},"iteration_indptr":[0,1,2,3,4,5,6,7,8,9,10,11,12,13,14,15,16,17,18,19,20,21,22,23,24,25,26,27,28,29,30,31,32,33,34,35,36,37,38,39,40,41,42,43,44,45,46,47,48,49,50,51,52,53,54,55,56,57,58,59,60,61,62,63,64,65,66,67,68,69,70,71,72,73,74,75,76,77,78,79,80,81,82,83,84,85,86,87,88,89,90,91,92,93,94,95,96,97,98,99,100],"tree_info":[0,0,0,0,0,0,0,0,0,0,0,0,0,0,0,0,0,0,0,0,0,0,0,0,0,0,0,0,0,0,0,0,0,0,0,0,0,0,0,0,0,0,0,0,0,0,0,0,0,0,0,0,0,0,0,0,0,0,0,0,0,0,0,0,0,0,0,0,0,0,0,0,0,0,0,0,0,0,0,0,0,0,0,0,0,0,0,0,0,0,0,0,0,0,0,0,0,0,0,0],"trees":[{"base_weights":[-4.9115633E-6,-3.5600375E2,4.6740628E2,-6.6778357E2,-1.1538023E2,9.856153E2,1.0624444E2,-7.0261566E2,8.740995E1,3.0136966E2,-2.3168611E2,8.577688E2,2.3432656E3,-8.445082E1,5.5472754E2,-7.4448694E2,-4.2579703E2,3.8555646E2,-2.7499597E2,2.6155258E1,3.7333563E2,-3.805896E2,-1.477656E2,6.3614575E2,1.1211444E3,1.4148004E3,8.4151276E2,2.5694597E1,-2.1776332E2,4.588392E2,9.2686926E2,1.1949194E2,-7.5345514E2,2.1958318E2,-5.7193506E2,1.950351E2,4.491267E1,-1.152714E2,-3.767464E1,-5.3859222E1,2.1295895E2,3.1199463E2,6.3043884E2,-1.862684E2,-4.5031738E2,1.361615E2,-2.0146748E2,9.6478955E2,2.141072E2,5.746489E2,1.2963009E3,2.7720009E1,4.859402E2,7.2355786E2,-5.256769E1,2.3633298E2,3.6778104E2,6.3762455E1,2.8881335E2,7.277307E1,-1.9001698E1,-2.5097482E2,-1.9365291E2,-6.906065E1,9.987434E1,4.6971806E1,-1.9019885E2,3.7167299E0,-2.0670319E1,2.828313E1,-2.7874262E1,1.1001161E2,-3.532129E0,-3.8033388E0,1.0501263E2,2.075786E2,7.689592E1,-8.250204E1,2.8163877E1,-1.095124E1,-1.4712657E2,-6.3401867E1,6.742361E1,-1.2894823E2,-4.8617107E1,3.105727E1,2.9389417E2,-3.2581615E1,1.0875494E2,2.3565239E2,2.1251453E1,2.3805095E2,4.127095E2,6.027796E0,2.3073483E2,-4.779212E1,7.7259544E1,8.4019714E1,2.4456218E2],"categories":[],"categories_nodes":[],"categories_segments":[],"categories_sizes":[],"default_left":[0,0,0,0,0,0,0,0,0,0,0,0,0,0,0,0,0,0,0,0,0,0,0,0,0,0,0,0,0,0,0,0,0,0,0,0,0,0,0,0,0,0,0,0,0,0,0,0,0,0,0,0,0,0,0,0,0,0,0,0,0,0,0,0,0,0,0,0,0,0,0,0,0,0,0,0,0,0,0,0,0,0,0,0,0,0,0,0,0,0,0,0,0,0,0,0,0,0,0],"id":0,"left_children":[1,3,5,7,9,11,13,15,17,19,21,23,25,27,29,31,33,35,37,39,41,43,45,47,49,51,-1,53,-1,55,57,59,61,63,65,-1,-1,-1,67,69,71,73,75,77,79,81,83,85,87,89,91,-1,-1,93,95,-1,97,-1,-1,-1,-1,-1,-1,-1,-1,-1,-1,-1,-1,-1,-1,-1,-1,-1,-1,-1,-1,-1,-1,-1,-1,-1,-1,-1,-1,-1,-1,-1,-1,-1,-1,-1,-1,-1,-1,-1,-1,-1,-1],"loss_changes":[1.6972637E8,4.336043E7,8.243167E7,6.690272E6,1.5968136E7,2.9406352E7,2.2368508E7,2.476368E6,1.4026272E6,1.4162725E6,3.155251E6,9.034592E6,2.462584E6,1.3018294E7,2.358074E6,1.70168E6,3.332283E6,3.3944338E5,1.4107669E5,2.5062181E5,7.02252E5,1.162682E6,2.5585042E6,1.2692564E7,6.434256E6,1.747975E6,0E0,8.667423E6,0E0,1.627226E6,1.79426E5,8.28758E4,1.308464E6,4.3346072E5,1.365202E6,0E0,0E0,0E0,5.543556E3,7.818521E4,1.7707675E5,5.973795E5,5.269025E4,6.721744E5,1.094015E6,8.78638E5,1.1903115E6,5.63996E5,2.0508998E6,2.069017E6,1.143936E6,0E0,0E0,4.973235E5,4.7743015E6,0E0,1.812487E6,0E0,0E0,0E0,0E0,0E0,0E0,0E0,0E0,0E0,0E0,0E0,0E0,0E0,0E0,0E0,0E0,0E0,0E0,0E0,0E0,0E0,0E0,0E0,0E0,0E0,0E0,0E0,0E0,0E0,0E0,0E0,0E0,0E0,0E0,0E0,0E0,0E0,0E0,0E0,0E0,0E0,0E0],"parents":[2147483647,0,0,1,1,2,2,3,3,4,4,5,5,6,6,7,7,8,8,9,9,10,10,11,11,12,12,13,13,14,14,15,15,16,16,17,17,18,18,19,19,20,20,21,21,22,22,23,23,24,24,25,25,27,27,29,29,30,30,31,31,32,32,33,33,34,34,38,38,39,39,40,40,41,41,42,42,43,43,44,44,45,45,46,46,47,47,48,48,49,49,50,50,53,53,54,54,56,56],"right_children":[2,4,6,8,10,12,14,16,18,20,22,24,26,28,30,32,34,36,38,40,42,44,46,48,50,52,-1,54,-1,56,58,60,62,64,66,-1,-1,-1,68,70,72,74,76,78,80,82,84,86,88,90,92,-1,-1,94,96,-1,98,-1,-1,-1,-1,-1,-1,-1,-1,-1,-1,-1,-1,-1,-1,-1,-1,-1,-1,-1,-1,-1,-1,-1,-1,-1,-1,-1,-1,-1,-1,-1,-1,-1,-1,-1,-1,-1,-1,-1,-1,-1,-1],"split_conditions":[8.4E1,6.2E1,6E0,4E0,5E1,5E0,4E0,9E0,1.9E1,1.6E1,9E0,7.7E1,9.6E1,1.07E2,5E0,2E0,3E0,2E1,4.6E1,1.4E1,2.2E1,1.1E1,7.4E1,9.5E1,1.1E1,1.64E2,8.4151276E2,5E1,-2.1776332E2,2.4E1,9E1,3E0,4.2E1,2.5E1,8E0,1.950351E2,4.491267E1,-1.152714E2,5E0,4E0,1.1E1,3E0,3.2E1,8E1,2E0,1.1E1,5E0,6E0,1.24E2,6E0,9.3E1,2.7720009E1,4.859402E2,1E0,1.33E2,2.3633298E2,6E0,6.3762455E1,2.8881335E2,7.277307E1,-1.9001698E1,-2.5097482E2,-1.9365291E2,-6.906065E1,9.987434E1,4.6971806E1,-1.9019885E2,3.7167299E0,-2.0670319E1,2.828313E1,-2.7874262E1,1.1001161E2,-3.532129E0,-3.8033388E0,1.0501263E2,2.075786E2,7.689592E1,-8.250204E1,2.8163877E1,-1.095124E1,-1.4712657E2,-6.3401867E1,6.742361E1,-1.2894823E2,-4.8617107E1,3.105727E1,2.9389417E2,-3.2581615E1,1.0875494E2,2.3565239E2,2.1251453E1,2.3805095E2,4.127095E2,6.027796E0,2.3073483E2,-4.779212E1,7.7259544E1,8.4019714E1,2.4456218E2],"split_indices":[4,4,5,1,9,5,1,5,9,6,5,7,4,4,1,5,1,3,4,3,3,2,4,9,6,9,0,9,0,9,4,0,4,4,2,0,0,0,0,1,0,0,3,9,5,6,8,6,9,6,4,0,0,0,9,0,8,0,0,0,0,0,0,0,0,0,0,0,0,0,0,0,0,0,0,0,0,0,0,0,0,0,0,0,0,0,0,0,0,0,0,0,0,0,0,0,0,0,0],"split_type":[0,0,0,0,0,0,0,0,0,0,0,0,0,0,0,0,0,0,0,0,0,0,0,0,0,0,0,0,0,0,0,0,0,0,0,0,0,0,0,0,0,0,0,0,0,0,0,0,0,0,0,0,0,0,0,0,0,0,0,0,0,0,0,0,0,0,0,0,0,0,0,0,0,0,0,0,0,0,0,0,0,0,0,0,0,0,0,0,0,0,0,0,0,0,0,0,0,0,0],"sum_hessian":[1.018E3,5.78E2,4.4E2,2.51E2,3.27E2,1.8E2,2.6E2,2.4E2,1.1E1,7.1E1,2.56E2,1.66E2,1.4E1,1.83E2,7.7E1,2.07E2,3.3E1,6E0,5E0,1.5E1,5.6E1,9.1E1,1.65E2,9.2E1,7.4E1,6E0,8E0,1.57E2,2.6E1,6.3E1,1.4E1,2E0,2.05E2,6E0,2.7E1,2E0,4E0,3E0,2E0,1.1E1,4E0,4.7E1,9E0,2.5E1,6.6E1,2.6E1,1.39E2,5.1E1,4.1E1,1.9E1,5.5E1,1E0,5E0,1.5E1,1.42E2,1.2E1,5.1E1,1E0,1.3E1,1E0,1E0,1.12E2,9.3E1,1E0,5E0,2E0,2.5E1,1E0,1E0,2E0,9E0,2E0,2E0,5E0,4.2E1,7E0,2E0,1.9E1,6E0,6E0,6E1,5E0,2.1E1,1.9E1,1.2E2,1E0,5E1,1.3E1,2.8E1,1.3E1,6E0,9E0,4.6E1,1E0,1.4E1,1.06E2,3.6E1,4.4E1,7E0],"tree_param":{"num_deleted":"0","num_feature":"10","num_nodes":"99","size_leaf_vector":"1"}},{"base_weights":[3.2786956E0,-2.4970163E2,3.354155E2,-4.690181E2,-8.0441124E1,7.0464874E2,7.8072075E1,2.8654102E1,-4.9841333E2,2.1780006E2,-1.6368208E2,6.082752E2,1.7306307E3,-4.7269778E2,1.626486E2,-1.3238771E2,3.909842E2,-2.0566267E2,-5.20002E2,4.2036823E2,1.5711778E2,-3.7719766E2,-1.3272552E2,5.5582086E2,1.301644E3,1.2473983E3,8.243012E2,-1.0621437E2,-5.26716E2,3.810416E1,4.0007193E2,2.2163681E1,5.372237E2,-3.1794507E2,8.004358E1,-5.499544E2,-3.6612262E2,5.5644836E1,5.002548E2,-3.4156723E1,1.9854121E2,-1.4244775E2,-1.749152E2,-2.3498239E2,-7.617264E1,4.9324057E2,9.843916E2,1.5629883E2,4.5877875E2,3.3775342E2,4.186656E2,-7.253203E1,-1.6769463E2,2.5104572E2,-1.1066529E2,3.300142E2,6.7231354E2,1.7699786E2,4.100667E1,1.607611E1,-1.0449322E2,-1.4750267E2,-1.8613567E2,-1.1289351E2,3.1592286E0,4.2443592E1,-3.0278486E1,6.599203E1,1.6870256E2,1.9441229E1,-4.9761158E1,-1.6029953E1,7.101563E1,-6.3374645E1,3.371318E1,-7.806342E1,7.381547E0,-6.036043E1,-5.712094E0,2.5611198E1,1.7076132E2,3.236143E2,3.6529724E1,2.3562012E1,1.2842703E2,4.6599423E2,6.126987E1,-1.1440474E2,-1.9058466E1,7.338943E1,1.7126192E2,5.4198086E1,2.083582E2],"categories":[],"categories_nodes":[],"categories_segments":[],"categories_sizes":[],"default_left":[0,0,0,0,0,0,0,0,0,0,0,0,0,0,0,0,0,0,0,0,0,0,0,0,0,0,0,0,0,0,0,0,0,0,0,0,0,0,0,0,0,0,0,0,0,0,0,0,0,0,0,0,0,0,0,0,0,0,0,0,0,0,0,0,0,0,0,0,0,0,0,0,0,0,0,0,0,0,0,0,0,0,0,0,0,0,0,0,0,0,0,0,0],"id":1,"left_children":[1,3,5,7,9,11,13,15,17,19,21,23,25,27,29,-1,31,33,35,37,39,41,43,45,47,49,-1,-1,51,53,55,-1,57,59,-1,61,63,65,67,69,71,-1,73,75,77,79,81,-1,-1,83,-1,-1,-1,85,87,89,91,-1,-1,-1,-1,-1,-1,-1,-1,-1,-1,-1,-1,-1,-1,-1,-1,-1,-1,-1,-1,-1,-1,-1,-1,-1,-1,-1,-1,-1,-1,-1,-1,-1,-1,-1,-1],"loss_changes":[8.5704296E7,2.1455688E7,4.18487E7,3.700836E6,8.178539E6,1.684412E7,1.223484E7,2.7266742E6,1.397236E6,8.1899825E5,1.6486305E6,5.350344E6,3.944564E6,3.7841E4,6.6970905E6,0E0,3.7767025E5,1.03974175E6,8.17252E5,4.3834775E5,4.5840662E5,5.48897E5,1.2890408E6,3.725208E6,1.15785E6,1.145854E6,0E0,0E0,6.71205E4,4.779662E6,1.265793E6,0E0,4.6169875E4,1.8789225E5,0E0,4.46804E5,1.53635E5,6.803626E4,1.025235E5,1.5412866E5,4.6477788E5,0E0,1.490001E5,5.30334E5,1.04621744E6,4.258096E6,1.414586E6,0E0,0E0,3.662722E4,0E0,0E0,0E0,3.4624598E6,1.1113461E6,1.1765185E6,3.8349E4,0E0,0E0,0E0,0E0,0E0,0E0,0E0,0E0,0E0,0E0,0E0,0E0,0E0,0E0,0E0,0E0,0E0,0E0,0E0,0E0,0E0,0E0,0E0,0E0,0E0,0E0,0E0,0E0,0E0,0E0,0E0,0E0,0E0,0E0,0E0,0E0],"parents":[2147483647,0,0,1,1,2,2,3,3,4,4,5,5,6,6,7,7,8,8,9,9,10,10,11,11,12,12,13,13,14,14,16,16,17,17,18,18,19,19,20,20,21,21,22,22,23,23,24,24,25,25,28,28,29,29,30,30,32,32,33,33,35,35,36,36,37,37,38,38,39,39,40,40,42,42,43,43,44,44,45,45,46,46,49,49,53,53,54,54,55,55,56,56],"right_children":[2,4,6,8,10,12,14,16,18,20,22,24,26,28,30,-1,32,34,36,38,40,42,44,46,48,50,-1,-1,52,54,56,-1,58,60,-1,62,64,66,68,70,72,-1,74,76,78,80,82,-1,-1,84,-1,-1,-1,86,88,90,92,-1,-1,-1,-1,-1,-1,-1,-1,-1,-1,-1,-1,-1,-1,-1,-1,-1,-1,-1,-1,-1,-1,-1,-1,-1,-1,-1,-1,-1,-1,-1,-1,-1,-1,-1,-1],"split_conditions":[8.4E1,6.2E1,6E0,1.9E1,5E1,5E0,7E0,3E0,2E0,3E0,5E0,9.9E1,1.03E2,1.1E2,4E0,-1.3238771E2,2E0,1.32E2,5.8E1,3E0,7E0,7.5E1,9E0,1.7E2,1.05E2,1.64E2,8.243012E2,-1.0621437E2,3E0,3E0,5E0,2.2163681E1,8E0,2E0,8.004358E1,2.3E1,4E0,2.3E1,7E1,3.4E1,1E1,-1.4244775E2,1.1E1,6E0,1.1E1,1.1E1,1.8E2,1.5629883E2,4.5877875E2,3E0,4.186656E2,-7.253203E1,-1.6769463E2,8E0,4E0,2E1,9E1,1.7699786E2,4.100667E1,1.607611E1,-1.0449322E2,-1.4750267E2,-1.8613567E2,-1.1289351E2,3.1592286E0,4.2443592E1,-3.0278486E1,6.599203E1,1.6870256E2,1.9441229E1,-4.9761158E1,-1.6029953E1,7.101563E1,-6.3374645E1,3.371318E1,-7.806342E1,7.381547E0,-6.036043E1,-5.712094E0,2.5611198E1,1.7076132E2,3.236143E2,3.6529724E1,2.3562012E1,1.2842703E2,4.6599423E2,6.126987E1,-1.1440474E2,-1.9058466E1,7.338943E1,1.7126192E2,5.4198086E1,2.083582E2],"split_indices":[4,4,5,9,9,5,5,2,1,1,8,7,4,4,1,0,0,9,4,0,5,4,5,9,9,9,0,0,1,1,1,0,0,2,0,6,1,9,4,9,6,0,0,8,6,6,9,0,0,0,0,0,0,5,3,6,4,0,0,0,0,0,0,0,0,0,0,0,0,0,0,0,0,0,0,0,0,0,0,0,0,0,0,0,0,0,0,0,0,0,0,0,0],"split_type":[0,0,0,0,0,0,0,0,0,0,0,0,0,0,0,0,0,0,0,0,0,0,0,0,0,0,0,0,0,0,0,0,0,0,0,0,0,0,0,0,0,0,0,0,0,0,0,0,0,0,0,0,0,0,0,0,0,0,0,0,0,0,0,0,0,0,0,0,0,0,0,0,0,0,0,0,0,0,0,0,0,0,0,0,0,0,0,0,0,0,0,0,0],"sum_hessian":[1.018E3,5.78E2,4.4E2,2.51E2,3.27E2,1.8E2,2.6E2,1.4E1,2.37E2,7.1E1,2.56E2,1.66E2,1.4E1,3.4E1,2.26E2,6E0,8E0,1.7E1,2.2E2,1.5E1,5.6E1,3.1E1,2.25E2,1.56E2,1E1,1.1E1,3E0,1.3E1,2.1E1,1.49E2,7.7E1,3E0,5E0,1.4E1,3E0,1.82E2,3.8E1,3E0,1.2E1,1E1,4.6E1,2E1,1.1E1,7.9E1,1.46E2,1.38E2,1.8E1,3E0,7E0,2E0,9E0,3E0,1.8E1,6.1E1,8.8E1,6.3E1,1.4E1,4E0,1E0,1E0,1.3E1,1.04E2,7.8E1,3.7E1,1E0,2E0,1E0,3E0,9E0,6E0,4E0,6E0,4E1,1E1,1E0,7.2E1,7E0,4.5E1,1.01E2,2.2E1,1.16E2,1.6E1,2E0,1E0,1E0,1E0,6E1,1.2E1,7.6E1,4.8E1,1.5E1,1E0,1.3E1],"tree_param":{"num_deleted":"0","num_feature":"10","num_nodes":"93","size_leaf_vector":"1"}},{"base_weights":[4.98381E0,-1.754497E2,2.4186821E2,-3.0011755E2,-2.7625824E1,1.5954099E2,8.683011E2,-3.8493396E2,-1.8772748E2,1.1829667E2,-1.4300319E2,-1.09234245E2,2.6514423E2,6.5001685E2,7.420097E2,2.2626056E2,-3.967045E2,-7.307035E1,-2.4679208E2,-7.428618E1,1.4011028E2,-1.9229428E2,5.8927902E1,-2.4558646E2,2.9068586E1,-1.0915202E2,3.241253E2,1.5464049E2,8.735913E2,9.082254E1,-4.7746584E-1,-4.0963327E2,-2.0408154E2,1.0331563E2,-1.05704926E2,3.9794243E1,-2.677363E2,1.7528108E2,-4.1266888E1,-2.9655673E2,-1.1093279E2,1.9442451E1,1.806009E2,-2.7713806E2,2.2346268E2,1.1717621E2,-1.3538394E2,-2.334975E2,7.830967E2,9.295386E2,2.9141376E2,1.2190109E1,1.4488841E2,4.285233E2,9.9282764E2,-1.349656E2,-1.026073E2,-6.355495E1,-1.6629328E1,-1.7421571E0,8.613682E1,-4.5256092E1,2.981706E1,-2.7334711E1,7.341382E1,-9.373393E1,-6.776734E1,4.738822E1,1.3559729E2,5.971789E1,-1.970317E1,-9.645414E1,-3.57311E1,-3.8181076E1,1.5000214E2,-2.5315834E1,5.910456E1,-3.5430466E1,-9.170594E1,1.3198096E2,2.2727415E1,1.0745948E2,-5.406435E1,-4.6933487E1,-1.1621697E2,2.706271E2,4.6068367E1,9.765095E1,3.0533862E2,6.40872E1,1.3013757E2,-3.5684746E1,5.192E1,-2.7835749E1,1.4902682E2,3.4487076E1,3.1542816E2],"categories":[],"categories_nodes":[],"categories_segments":[],"categories_sizes":[],"default_left":[0,0,0,0,0,0,0,0,0,0,0,0,0,0,0,0,0,0,0,0,0,0,0,0,0,0,0,0,0,0,0,0,0,0,0,0,0,0,0,0,0,0,0,0,0,0,0,0,0,0,0,0,0,0,0,0,0,0,0,0,0,0,0,0,0,0,0,0,0,0,0,0,0,0,0,0,0,0,0,0,0,0,0,0,0,0,0,0,0,0,0,0,0,0,0,0,0],"id":2,"left_children":[1,3,5,7,9,11,13,15,17,19,21,23,25,-1,27,29,31,33,35,-1,37,39,41,43,45,47,49,51,53,-1,-1,55,57,59,61,63,65,67,69,71,73,75,-1,77,-1,79,81,83,85,87,89,91,-1,93,95,-1,-1,-1,-1,-1,-1,-1,-1,-1,-1,-1,-1,-1,-1,-1,-1,-1,-1,-1,-1,-1,-1,-1,-1,-1,-1,-1,-1,-1,-1,-1,-1,-1,-1,-1,-1,-1,-1,-1,-1,-1,-1],"loss_changes":[4.3596412E7,1.0662034E7,2.2604936E7,2.920948E6,4.4953335E6,1.1126927E7,6.755224E6,1.370308E6,9.097555E5,9.7656725E5,1.4943885E6,2.1003655E6,6.238848E6,0E0,3.574682E6,7.018745E4,3.52216E5,2.872225E5,5.50863E5,0E0,7.2170175E5,9.85056E5,6.316025E5,1.9564698E6,8.2727694E5,4.5097875E6,4.541494E6,4.61807E5,1.64421E6,0E0,0E0,2.89718E5,3.26875E3,1.6212777E5,3.9464434E5,2.1007823E5,8.6577E4,3.79118E5,1.2453627E5,1.919995E5,7.5233906E5,5.5130194E5,0E0,2.136115E5,0E0,4.6129234E5,5.0710375E5,3.5441762E5,2.3602725E5,3.08427E5,2.476864E6,1.8936395E5,0E0,4.017955E5,1.422414E6,0E0,0E0,0E0,0E0,0E0,0E0,0E0,0E0,0E0,0E0,0E0,0E0,0E0,0E0,0E0,0E0,0E0,0E0,0E0,0E0,0E0,0E0,0E0,0E0,0E0,0E0,0E0,0E0,0E0,0E0,0E0,0E0,0E0,0E0,0E0,0E0,0E0,0E0,0E0,0E0,0E0,0E0],"parents":[2147483647,0,0,1,1,2,2,3,3,4,4,5,5,6,6,7,7,8,8,9,9,10,10,11,11,12,12,14,14,15,15,16,16,17,17,18,18,20,20,21,21,22,22,23,23,24,24,25,25,26,26,27,27,28,28,31,31,32,32,33,33,34,34,35,35,36,36,37,37,38,38,39,39,40,40,41,41,43,43,45,45,46,46,47,47,48,48,49,49,50,50,51,51,53,53,54,54],"right_children":[2,4,6,8,10,12,14,16,18,20,22,24,26,-1,28,30,32,34,36,-1,38,40,42,44,46,48,50,52,54,-1,-1,56,58,60,62,64,66,68,70,72,74,76,-1,78,-1,80,82,84,86,88,90,92,-1,94,96,-1,-1,-1,-1,-1,-1,-1,-1,-1,-1,-1,-1,-1,-1,-1,-1,-1,-1,-1,-1,-1,-1,-1,-1,-1,-1,-1,-1,-1,-1,-1,-1,-1,-1,-1,-1,-1,-1,-1,-1,-1,-1],"split_conditions":[8.4E1,9E0,1.58E2,5.8E1,7.4E1,1.1E1,7E0,2E0,1.1E1,1E0,7.3E1,7.3E1,4.7E1,6.5001685E2,7.7E1,8E0,7E0,3.4E1,2E0,-7.428618E1,6E1,1.1E1,1.7E1,4E0,6E0,6E0,1.6E1,8E0,9.3E1,9.082254E1,-4.7746584E-1,4.1E1,1.35E2,1.6E1,8E1,1E0,1.2E1,1.1E1,2.4E1,7.5E1,2.7E1,7.6E1,1.806009E2,2.2E1,2.2346268E2,1.08E2,1E0,1.1E2,2E0,9.1E1,2.7E1,1.7E1,1.4488841E2,5E0,1E0,-1.349656E2,-1.026073E2,-6.355495E1,-1.6629328E1,-1.7421571E0,8.613682E1,-4.5256092E1,2.981706E1,-2.7334711E1,7.341382E1,-9.373393E1,-6.776734E1,4.738822E1,1.3559729E2,5.971789E1,-1.970317E1,-9.645414E1,-3.57311E1,-3.8181076E1,1.5000214E2,-2.5315834E1,5.910456E1,-3.5430466E1,-9.170594E1,1.3198096E2,2.2727415E1,1.0745948E2,-5.406435E1,-4.6933487E1,-1.1621697E2,2.706271E2,4.6068367E1,9.765095E1,3.0533862E2,6.40872E1,1.3013757E2,-3.5684746E1,5.192E1,-2.7835749E1,1.4902682E2,3.4487076E1,3.1542816E2],"split_indices":[4,5,9,4,9,6,3,5,2,0,7,7,7,0,7,0,5,9,5,0,7,6,3,1,6,8,6,0,4,0,0,4,9,6,9,5,6,2,9,4,6,7,0,7,0,9,5,4,0,4,6,6,0,8,0,0,0,0,0,0,0,0,0,0,0,0,0,0,0,0,0,0,0,0,0,0,0,0,0,0,0,0,0,0,0,0,0,0,0,0,0,0,0,0,0,0,0],"split_type":[0,0,0,0,0,0,0,0,0,0,0,0,0,0,0,0,0,0,0,0,0,0,0,0,0,0,0,0,0,0,0,0,0,0,0,0,0,0,0,0,0,0,0,0,0,0,0,0,0,0,0,0,0,0,0,0,0,0,0,0,0,0,0,0,0,0,0,0,0,0,0,0,0,0,0,0,0,0,0,0,0,0,0,0,0,0,0,0,0,0,0,0,0,0,0,0,0],"sum_hessian":[1.018E3,5.78E2,4.4E2,3.13E2,2.65E2,3.9E2,5E1,1.77E2,1.36E2,1.17E2,1.48E2,1.1E2,2.8E2,3E0,4.7E1,3E0,1.74E2,4.7E1,8.9E1,6E0,1.11E2,1.19E2,2.9E1,5.5E1,5.5E1,3.8E1,2.42E2,9E0,3.8E1,2E0,1E0,1.62E2,1.2E1,7E0,4E1,6E0,8.3E1,9.3E1,1.8E1,5.1E1,6.8E1,2.8E1,1E0,5.4E1,1E0,3.6E1,1.9E1,3.4E1,4E0,1.1E1,2.31E2,7E0,2E0,9E0,2.9E1,9.8E1,6.4E1,1.1E1,1E0,5E0,2E0,3.3E1,7E0,4E0,2E0,3.7E1,4.6E1,8.9E1,4E0,1E0,1.7E1,4.4E1,7E0,6.7E1,1E0,1.8E1,1E1,9E0,4.5E1,3E0,3.3E1,1E0,1.8E1,2.4E1,1E1,3E0,1E0,2E0,9E0,1.51E2,8E1,4E0,3E0,1E0,8E0,2E0,2.7E1],"tree_param":{"num_deleted":"0","num_feature":"10","num_nodes":"97","size_leaf_vector":"1"}},{"base_weights":[5.8501E0,-5.6856316E1,3.8727353E2,-1.1336812E2,2.1741658E2,1.10585815E2,5.424602E2,-2.552901E2,-4.7594177E1,4.6705313E2,1.4576047E2,4.1402014E2,1.619159E0,5.2589014E2,4.8196033E2,-3.256338E2,-2.148641E2,1.418103E2,-8.472505E1,3.6462457E2,2.0990463E2,-4.6118668E1,2.0048846E2,-6.875794E-1,4.4622043E2,-1.20226494E2,1.4261838E2,5.928472E2,1.5693964E2,-2.32499E2,-1.0500948E2,-8.876195E1,-2.407982E2,-2.616426E2,2.360407E2,1.2645782E2,-9.189199E1,3.816527E2,-6.607636E0,-1.1431343E2,2.76801E2,-6.2175705E1,2.3692651E2,1.2389173E1,4.765226E2,-1.8800998E2,1.4783936E2,-8.613286E1,3.571078E2,3.3642288E2,6.893502E2,-1.317856E1,3.9642297E2,-3.383617E1,-7.409702E1,-3.5722443E1,5.8029728E1,-9.123514E1,-6.540851E1,-2.369228E1,-9.478526E1,3.8836403E1,1.0457211E2,-7.24218E1,-2.1030243E1,1.359875E2,6.3566628E1,1.1685315E1,-4.7715256E1,2.3624111E1,1.147764E2,1.795108E1,-5.8248352E1,5.643421E1,1.3712773E2,3.0938234E1,1.5032773E2,-3.3831413E1,-7.1077126E1,1.1920227E1,6.1999454E1,-5.6292374E1,1.2411638E2,-3.4871742E1,1.2678521E2,7.836145E1,2.6483487E2,-6.591248E-1,2.2096535E2,6.812297E1,-5.957381E1,2.4292988E1,1.2674256E2],"categories":[],"categories_nodes":[],"categories_segments":[],"categories_sizes":[],"default_left":[0,0,0,0,0,0,0,0,0,0,0,0,0,0,0,0,0,0,0,0,0,0,0,0,0,0,0,0,0,0,0,0,0,0,0,0,0,0,0,0,0,0,0,0,0,0,0,0,0,0,0,0,0,0,0,0,0,0,0,0,0,0,0,0,0,0,0,0,0,0,0,0,0,0,0,0,0,0,0,0,0,0,0,0,0,0,0,0,0,0,0,0,0],"id":3,"left_children":[1,3,5,7,9,11,13,15,17,19,21,23,25,-1,27,29,31,33,35,37,-1,39,41,-1,43,45,47,49,51,53,-1,55,57,59,61,-1,63,65,-1,67,69,71,73,-1,75,77,79,81,83,85,87,89,91,-1,-1,-1,-1,-1,-1,-1,-1,-1,-1,-1,-1,-1,-1,-1,-1,-1,-1,-1,-1,-1,-1,-1,-1,-1,-1,-1,-1,-1,-1,-1,-1,-1,-1,-1,-1,-1,-1,-1,-1],"loss_changes":[2.4394152E7,1.3602346E7,6.12312E6,6.774226E6,2.61512E6,1.7517335E6,5.8928E6,5.84087E5,3.514326E6,5.311975E5,1.2483835E6,1.88698E5,7.0435225E5,0E0,3.11457E6,1.04946E5,4.65908E5,3.179196E6,1.5517248E6,1.730045E5,0E0,6.2622075E5,8.952605E5,0E0,1.398315E5,4.275449E5,9.6298844E5,1.401304E6,9.829956E5,6.837625E3,0E0,2.5399397E5,1.1103E5,1.3377438E5,7.585035E5,0E0,1.325409E6,1.958335E5,0E0,1.6389831E5,7.462997E4,2.0486475E5,7.84509E5,0E0,5.84145E4,3.9525438E4,2.3585078E4,5.85025E5,3.5921212E5,5.913355E5,1.535778E6,7.1324506E5,4.7970125E4,0E0,0E0,0E0,0E0,0E0,0E0,0E0,0E0,0E0,0E0,0E0,0E0,0E0,0E0,0E0,0E0,0E0,0E0,0E0,0E0,0E0,0E0,0E0,0E0,0E0,0E0,0E0,0E0,0E0,0E0,0E0,0E0,0E0,0E0,0E0,0E0,0E0,0E0,0E0,0E0],"parents":[2147483647,0,0,1,1,2,2,3,3,4,4,5,5,6,6,7,7,8,8,9,9,10,10,11,11,12,12,14,14,15,15,16,16,17,17,18,18,19,19,21,21,22,22,24,24,25,25,26,26,27,27,28,28,29,29,31,31,32,32,33,33,34,34,36,36,37,37,39,39,40,40,41,41,42,42,44,44,45,45,46,46,47,47,48,48,49,49,50,50,51,51,52,52],"right_children":[2,4,6,8,10,12,14,16,18,20,22,24,26,-1,28,30,32,34,36,38,-1,40,42,-1,44,46,48,50,52,54,-1,56,58,60,62,-1,64,66,-1,68,70,72,74,-1,76,78,80,82,84,86,88,90,92,-1,-1,-1,-1,-1,-1,-1,-1,-1,-1,-1,-1,-1,-1,-1,-1,-1,-1,-1,-1,-1,-1,-1,-1,-1,-1,-1,-1,-1,-1,-1,-1,-1,-1,-1,-1,-1,-1,-1,-1],"split_conditions":[7.9E1,4E0,9.3E1,4E0,4E0,8.1E1,6E0,4.3E1,5E1,2.1E1,3E0,5E0,9.1E1,5.2589014E2,8E0,1.5E1,1.1E1,4.4E1,7E0,1.07E2,2.0990463E2,2.3E1,9E0,-6.875794E-1,7.1E1,1.1E1,8.4E1,8E1,9.9E1,5E0,-1.0500948E2,1.08E2,5E0,1.8E1,7.9E1,1.2645782E2,5E0,1.1E1,-6.607636E0,1.3E1,6.7E1,5E1,6E0,1.2389173E1,1E0,8.8E1,1.5E1,5E0,7E0,1.2E1,8.5E1,8E1,8E0,-3.383617E1,-7.409702E1,-3.5722443E1,5.8029728E1,-9.123514E1,-6.540851E1,-2.369228E1,-9.478526E1,3.8836403E1,1.0457211E2,-7.24218E1,-2.1030243E1,1.359875E2,6.3566628E1,1.1685315E1,-4.7715256E1,2.3624111E1,1.147764E2,1.795108E1,-5.8248352E1,5.643421E1,1.3712773E2,3.0938234E1,1.5032773E2,-3.3831413E1,-7.1077126E1,1.1920227E1,6.1999454E1,-5.6292374E1,1.2411638E2,-3.4871742E1,1.2678521E2,7.836145E1,2.6483487E2,-6.591248E-1,2.2096535E2,6.812297E1,-5.957381E1,2.4292988E1,1.2674256E2],"split_indices":[7,1,4,3,5,7,3,4,9,3,0,8,7,0,5,4,2,7,3,4,0,3,5,0,4,0,4,7,7,4,0,9,8,9,4,0,8,0,0,9,4,9,8,0,0,7,2,1,3,0,9,7,3,0,0,0,0,0,0,0,0,0,0,0,0,0,0,0,0,0,0,0,0,0,0,0,0,0,0,0,0,0,0,0,0,0,0,0,0,0,0,0,0],"split_type":[0,0,0,0,0,0,0,0,0,0,0,0,0,0,0,0,0,0,0,0,0,0,0,0,0,0,0,0,0,0,0,0,0,0,0,0,0,0,0,0,0,0,0,0,0,0,0,0,0,0,0,0,0,0,0,0,0,0,0,0,0,0,0,0,0,0,0,0,0,0,0,0,0,0,0,0,0,0,0,0,0,0,0,0,0,0,0,0,0,0,0,0,0],"sum_hessian":[1.018E3,8.75E2,1.43E2,7.26E2,1.49E2,5.2E1,9.1E1,2.29E2,4.97E2,3.2E1,1.17E2,1.3E1,3.9E1,3E0,8.8E1,8.1E1,1.48E2,8.1E1,4.16E2,2.4E1,8E0,2.6E1,9.1E1,1E0,1.2E1,2.1E1,1.8E1,6.5E1,2.3E1,1.9E1,6.2E1,2.6E1,1.22E2,1.5E1,6.6E1,5E0,4.11E2,2.3E1,1E0,2.2E1,4E0,1.1E1,8E1,1E0,1.1E1,1.7E1,4E0,9E0,9E0,1.9E1,4.6E1,1.4E1,9E0,3E0,1.6E1,2.4E1,2E0,2.9E1,9.3E1,4E0,1.1E1,3.5E1,3.1E1,5.1E1,3.6E2,1.5E1,8E0,5E0,1.7E1,2E0,2E0,6E0,5E0,6.7E1,1.3E1,1E0,1E1,8E0,9E0,2E0,2E0,8E0,1E0,1E0,8E0,1.8E1,1E0,3E0,4.3E1,6E0,8E0,1E0,8E0],"tree_param":{"num_deleted":"0","num_feature":"10","num_nodes":"93","size_leaf_vector":"1"}},{"base_weights":[5.998745E0,-3.9378017E1,2.8199905E2,-7.975567E1,1.5658151E2,4.553495E2,1.3762683E2,-1.8691121E2,-2.754592E1,3.3914478E2,1.0419873E2,3.7668613E2,4.6823834E2,-9.617499E0,4.815977E2,-1.9379109E2,6.7808975E1,2.3076782E2,-5.0395153E1,2.6295502E2,5.1310016E2,2.024064E1,1.7004085E2,2.1654257E2,5.762595E2,1.8066579E2,-1.8689465E2,3.5218976E2,8.1112317E2,5.9202065E1,-1.9848921E2,6.568105E1,-3.0081337E1,3.3607245E2,6.85279E1,-6.574134E1,1.2833846E2,1.4121098E2,2.2442459E2,4.3426834E1,1.6231462E2,6.665946E1,-5.9683388E1,-5.635673E1,2.0223976E2,3.4933398E2,1.4414099E2,1.7582996E1,5.9391486E2,-5.6167744E1,3.37215E2,-1.2400322E2,-9.595897E1,2.5123868E2,4.893575E2,2.7850333E2,3.3752583E1,7.82124E1,-1.6905428E1,-8.3924774E1,-5.7057583E1,-2.1132643E1,1.2626924E2,-1.1723903E1,1.0038061E2,-2.6314724E1,1.0115808E1,1.9754757E1,1.835371E2,2.4328693E1,7.791987E1,-2.29293E1,3.883954E1,4.2992233E1,-3.1180546E1,5.7761265E1,-6.386804E1,4.6851105E1,1.3071297E2,7.7367546E1,1.6130899E2,-1.2312917E1,7.5261665E1,1.9686801E2,1.20990204E2,-4.745138E1,3.5481434E1,4.2550285E1,2.0153221E2,-5.286846E1,-1.9739017E1,-2.8431154E1,8.63911E1,1.7266652E2,5.477273E1],"categories":[],"categories_nodes":[],"categories_segments":[],"categories_sizes":[],"default_left":[0,0,0,0,0,0,0,0,0,0,0,0,0,0,0,0,0,0,0,0,0,0,0,0,0,0,0,0,0,0,0,0,0,0,0,0,0,0,0,0,0,0,0,0,0,0,0,0,0,0,0,0,0,0,0,0,0,0,0,0,0,0,0,0,0,0,0,0,0,0,0,0,0,0,0,0,0,0,0,0,0,0,0,0,0,0,0,0,0,0,0,0,0,0,0],"id":4,"left_children":[1,3,5,7,9,11,13,15,17,19,21,23,-1,25,27,29,31,33,35,37,39,41,43,45,47,49,51,53,55,57,59,-1,-1,61,63,65,67,-1,69,-1,-1,71,73,75,77,79,81,-1,83,85,87,89,-1,91,93,-1,-1,-1,-1,-1,-1,-1,-1,-1,-1,-1,-1,-1,-1,-1,-1,-1,-1,-1,-1,-1,-1,-1,-1,-1,-1,-1,-1,-1,-1,-1,-1,-1,-1,-1,-1,-1,-1,-1,-1],"loss_changes":[1.277306E7,6.9437375E6,3.541218E6,4.0620995E6,1.3991372E6,5.064343E6,4.0564522E6,4.30221E5,2.9037425E6,3.0244725E5,6.488599E5,1.856759E6,0E0,1.9565398E6,7.377685E5,2.87505E5,1.9976412E5,6.60354E5,1.2454756E6,9.4478375E4,1.433175E4,2.0060736E5,4.925215E5,2.9576175E5,2.11951E5,1.0570715E6,2.1121344E5,1.4015175E5,3.8690775E5,1.3111484E5,1.0052E5,0E0,0E0,8.5723175E5,4.9981325E5,9.12163E5,1.0472938E6,0E0,9.5332875E4,0E0,0E0,3.1544938E5,1.945487E5,3.916398E5,5.5579325E5,6.8023875E4,5.044195E5,0E0,4.4159E4,2.3222806E5,1.0159479E6,5.5281062E4,0E0,1.9251438E5,8.00245E4,0E0,0E0,0E0,0E0,0E0,0E0,0E0,0E0,0E0,0E0,0E0,0E0,0E0,0E0,0E0,0E0,0E0,0E0,0E0,0E0,0E0,0E0,0E0,0E0,0E0,0E0,0E0,0E0,0E0,0E0,0E0,0E0,0E0,0E0,0E0,0E0,0E0,0E0,0E0,0E0],"parents":[2147483647,0,0,1,1,2,2,3,3,4,4,5,5,6,6,7,7,8,8,9,9,10,10,11,11,13,13,14,14,15,15,16,16,17,17,18,18,19,19,20,20,21,21,22,22,23,23,24,24,25,25,26,26,27,27,28,28,29,29,30,30,33,33,34,34,35,35,36,36,38,38,41,41,42,42,43,43,44,44,45,45,46,46,48,48,49,49,50,50,51,51,53,53,54,54],"right_children":[2,4,6,8,10,12,14,16,18,20,22,24,-1,26,28,30,32,34,36,38,40,42,44,46,48,50,52,54,56,58,60,-1,-1,62,64,66,68,-1,70,-1,-1,72,74,76,78,80,82,-1,84,86,88,90,-1,92,94,-1,-1,-1,-1,-1,-1,-1,-1,-1,-1,-1,-1,-1,-1,-1,-1,-1,-1,-1,-1,-1,-1,-1,-1,-1,-1,-1,-1,-1,-1,-1,-1,-1,-1,-1,-1,-1,-1,-1,-1],"split_conditions":[7.9E1,4E0,8.4E1,6.2E1,4E0,1.2E1,9.9E1,1.51E2,4E1,2.1E1,5E0,8E1,4.6823834E2,2E0,1.03E2,7E0,2E0,1E0,2.7E1,1.3E1,1.3E1,4E1,6.9E1,1.25E2,1E0,9.1E1,9.8E1,9E0,1.9E1,8E0,5E0,6.568105E1,-3.0081337E1,3E0,8E0,7.3E1,2E1,1.4121098E2,5E0,4.3426834E1,1.6231462E2,1.6E1,6E0,2.8E1,7E0,1.9E1,1.5E1,1.7582996E1,5E0,1.1E1,2E0,1E1,-9.595897E1,1.01E2,1.08E2,2.7850333E2,3.3752583E1,7.82124E1,-1.6905428E1,-8.3924774E1,-5.7057583E1,-2.1132643E1,1.2626924E2,-1.1723903E1,1.0038061E2,-2.6314724E1,1.0115808E1,1.9754757E1,1.835371E2,2.4328693E1,7.791987E1,-2.29293E1,3.883954E1,4.2992233E1,-3.1180546E1,5.7761265E1,-6.386804E1,4.6851105E1,1.3071297E2,7.7367546E1,1.6130899E2,-1.2312917E1,7.5261665E1,1.9686801E2,1.20990204E2,-4.745138E1,3.5481434E1,4.2550285E1,2.0153221E2,-5.286846E1,-1.9739017E1,-2.8431154E1,8.63911E1,1.7266652E2,5.477273E1],"split_indices":[7,1,7,4,5,0,7,9,9,3,0,7,0,1,4,9,1,1,6,6,6,9,4,9,5,7,4,3,6,0,5,0,0,0,2,7,3,0,0,0,0,6,2,9,8,6,2,0,0,0,5,3,0,7,7,0,0,0,0,0,0,0,0,0,0,0,0,0,0,0,0,0,0,0,0,0,0,0,0,0,0,0,0,0,0,0,0,0,0,0,0,0,0,0,0],"split_type":[0,0,0,0,0,0,0,0,0,0,0,0,0,0,0,0,0,0,0,0,0,0,0,0,0,0,0,0,0,0,0,0,0,0,0,0,0,0,0,0,0,0,0,0,0,0,0,0,0,0,0,0,0,0,0,0,0,0,0,0,0,0,0,0,0,0,0,0,0,0,0,0,0,0,0,0,0,0,0,0,0,0,0,0,0,0,0,0,0,0,0,0,0,0,0],"sum_hessian":[1.018E3,8.75E2,1.43E2,7.26E2,1.49E2,6.4E1,7.9E1,2.37E2,4.89E2,3.2E1,1.17E2,6.1E1,3E0,5.6E1,2.3E1,2.31E2,6E0,3.9E1,4.5E2,2.4E1,8E0,5.2E1,6.5E1,3.5E1,2.6E1,2.7E1,2.9E1,1.8E1,5E0,4E0,2.27E2,3E0,3E0,2.3E1,1.6E1,4.15E2,3.5E1,2E0,2.2E1,1E0,7E0,3.3E1,1.9E1,8E0,5.7E1,1.1E1,2.4E1,1E0,2.5E1,1.1E1,1.6E1,2.1E1,8E0,1.2E1,6E0,4E0,1E0,1E0,3E0,1.8E1,2.09E2,4E0,1.9E1,1.2E1,4E0,3.4E2,7.5E1,3.2E1,3E0,5E0,1.7E1,1E1,2.3E1,3E0,1.6E1,3E0,5E0,4.9E1,8E0,9E0,2E0,9E0,1.5E1,1.7E1,8E0,7E0,4E0,1.1E1,5E0,1E1,1.1E1,1E0,1.1E1,4E0,2E0],"tree_param":{"num_deleted":"0","num_feature":"10","num_nodes":"95","size_leaf_vector":"1"}},{"base_weights":[6.8994937E0,-2.6439983E1,2.0966673E2,-5.53657E1,1.13929596E2,1.27905975E2,3.8669803E2,-1.3900127E2,-1.5636778E1,2.5101343E2,7.462708E1,-1.733717E2,1.5960785E2,2.5051862E2,8.382742E2,-9.695454E1,-1.9340977E2,1.810938E2,-3.4317703E1,3.003335E2,8.612291E1,3.770146E1,1.6111638E2,1.3124341E1,-2.0235696E2,2.3532909E2,5.4593744E0,3.021041E2,-2.376912E2,3.691039E2,1.2336235E3,-1.1630958E2,1.0951415E2,-1.3101701E1,-1.9754794E2,1.07844864E2,2.9796106E2,-1.6873994E2,-1.4882386E1,3.4548605E2,9.976937E1,1.9581226E1,1.3544002E2,-1.1921625E1,1.9709142E2,2.5626004E2,1.717417E1,-8.298005E1,-4.2489098E1,3.1469257E2,1.1639005E2,1.9815065E2,-3.921782E1,3.5047836E2,-3.88875E1,-1.0082886E0,-9.440428E1,-1.7584425E1,4.663706E2,4.3230112E2,6.0615494E1,-3.6144985E1,5.8932316E1,-7.021769E0,5.366998E1,-4.0835632E1,-6.1361004E1,8.5501495E1,1.9932892E1,1.4998216E2,2.5595097E1,-5.6614914E1,-3.6704323E1,-2.4015045E1,7.553839E0,2.5170504E1,1.1601379E2,3.962329E1,-9.265797E0,1.7062263E1,-1.1881714E0,-1.10750065E1,5.632751E1,1.6721878E1,-2.781531E1,4.8474035E0,8.204405E1,-4.8793106E1,9.267461E1,-3.5758804E1,5.7016148E1,1.2020513E2,5.464826E1,2.9528275E0,7.823611E1,2.0274537E0,8.764721E1,-2.8842276E1,6.572621E1,4.826117E1,1.3254153E2,3.649208E1,-1.0214979E2,1.5352841E2,4.2721146E1],"categories":[],"categories_nodes":[],"categories_segments":[],"categories_sizes":[],"default_left":[0,0,0,0,0,0,0,0,0,0,0,0,0,0,0,0,0,0,0,0,0,0,0,0,0,0,0,0,0,0,0,0,0,0,0,0,0,0,0,0,0,0,0,0,0,0,0,0,0,0,0,0,0,0,0,0,0,0,0,0,0,0,0,0,0,0,0,0,0,0,0,0,0,0,0,0,0,0,0,0,0,0,0,0,0,0,0,0,0,0,0,0,0,0,0,0,0,0,0,0,0,0,0,0,0],"id":5,"left_children":[1,3,5,7,9,11,13,15,17,19,21,23,25,27,29,31,33,35,37,39,41,43,45,-1,47,49,51,53,55,57,59,61,63,-1,65,67,69,71,73,75,77,79,81,83,85,87,89,-1,-1,91,93,95,97,99,101,-1,-1,-1,103,-1,-1,-1,-1,-1,-1,-1,-1,-1,-1,-1,-1,-1,-1,-1,-1,-1,-1,-1,-1,-1,-1,-1,-1,-1,-1,-1,-1,-1,-1,-1,-1,-1,-1,-1,-1,-1,-1,-1,-1,-1,-1,-1,-1,-1,-1],"loss_changes":[6.89414E6,3.5631222E6,2.034825E6,2.4134668E6,7.894284E5,9.827785E5,2.5572885E6,5.165695E5,1.8217186E6,2.42504E5,3.7077888E5,7.178534E4,1.0608955E6,9.7845075E5,1.399527E6,5.482296E5,5.3956E4,3.3596362E5,1.1783562E6,1.9193075E5,2.6882703E4,6.6674106E5,4.749305E5,0E0,1.401875E3,5.391775E5,2.7464712E5,5.579715E5,7.110647E4,2.7695288E5,7.784795E5,1.8422325E5,1.1486042E5,0E0,1.423125E4,1.8643681E5,6.445424E5,2.973575E4,1.035869E6,1.8323875E5,2.9406844E4,4.614973E3,5.2018516E4,3.605075E5,2.7200656E5,5.1345062E5,3.762881E5,0E0,0E0,3.37287E5,3.9744584E5,1.0597861E5,4.0335503E5,4.3109825E5,2.8350372E5,0E0,0E0,0E0,6.4875E2,0E0,0E0,0E0,0E0,0E0,0E0,0E0,0E0,0E0,0E0,0E0,0E0,0E0,0E0,0E0,0E0,0E0,0E0,0E0,0E0,0E0,0E0,0E0,0E0,0E0,0E0,0E0,0E0,0E0,0E0,0E0,0E0,0E0,0E0,0E0,0E0,0E0,0E0,0E0,0E0,0E0,0E0,0E0,0E0,0E0,0E0],"parents":[2147483647,0,0,1,1,2,2,3,3,4,4,5,5,6,6,7,7,8,8,9,9,10,10,11,11,12,12,13,13,14,14,15,15,16,16,17,17,18,18,19,19,20,20,21,21,22,22,24,24,25,25,26,26,27,27,28,28,29,29,30,30,31,31,32,32,34,34,35,35,36,36,37,37,38,38,39,39,40,40,41,41,42,42,43,43,44,44,45,45,46,46,49,49,50,50,51,51,52,52,53,53,54,54,58,58],"right_children":[2,4,6,8,10,12,14,16,18,20,22,24,26,28,30,32,34,36,38,40,42,44,46,-1,48,50,52,54,56,58,60,62,64,-1,66,68,70,72,74,76,78,80,82,84,86,88,90,-1,-1,92,94,96,98,100,102,-1,-1,-1,104,-1,-1,-1,-1,-1,-1,-1,-1,-1,-1,-1,-1,-1,-1,-1,-1,-1,-1,-1,-1,-1,-1,-1,-1,-1,-1,-1,-1,-1,-1,-1,-1,-1,-1,-1,-1,-1,-1,-1,-1,-1,-1,-1,-1,-1,-1],"split_conditions":[7.9E1,4E0,1.58E2,4.6E1,4E0,1E0,1.03E2,3.8E1,4E1,1.1E1,9E0,6E0,1.3E1,9.4E1,5E0,3.2E1,1E0,8.4E1,5E0,7.3E1,9.7E1,6E0,1.1E1,1.3124341E1,5E0,4E0,3E0,1.1E1,6.2E1,1E0,3E1,1.1E1,2.5E1,-1.3101701E1,5E0,8E0,1E2,1.16E2,1.2E1,6E0,1.03E2,8E0,4E0,1.2E1,6.7E1,9E0,9E1,-8.298005E1,-4.2489098E1,1.33E2,1.01E2,2E0,5E0,9.3E1,9E0,-1.0082886E0,-9.440428E1,-1.7584425E1,2E0,4.3230112E2,6.0615494E1,-3.6144985E1,5.8932316E1,-7.021769E0,5.366998E1,-4.0835632E1,-6.1361004E1,8.5501495E1,1.9932892E1,1.4998216E2,2.5595097E1,-5.6614914E1,-3.6704323E1,-2.4015045E1,7.553839E0,2.5170504E1,1.1601379E2,3.962329E1,-9.265797E0,1.7062263E1,-1.1881714E0,-1.10750065E1,5.632751E1,1.6721878E1,-2.781531E1,4.8474035E0,8.204405E1,-4.8793106E1,9.267461E1,-3.5758804E1,5.7016148E1,1.2020513E2,5.464826E1,2.9528275E0,7.823611E1,2.0274537E0,8.764721E1,-2.8842276E1,6.572621E1,4.826117E1,1.3254153E2,3.649208E1,-1.0214979E2,1.5352841E2,4.2721146E1],"split_indices":[7,1,9,7,5,0,4,7,9,0,0,6,3,7,0,7,2,4,8,9,4,8,0,0,5,5,0,0,4,0,6,0,4,0,6,3,4,9,6,2,4,3,9,3,4,5,4,0,0,9,7,5,1,4,3,0,0,0,1,0,0,0,0,0,0,0,0,0,0,0,0,0,0,0,0,0,0,0,0,0,0,0,0,0,0,0,0,0,0,0,0,0,0,0,0,0,0,0,0,0,0,0,0,0,0],"split_type":[0,0,0,0,0,0,0,0,0,0,0,0,0,0,0,0,0,0,0,0,0,0,0,0,0,0,0,0,0,0,0,0,0,0,0,0,0,0,0,0,0,0,0,0,0,0,0,0,0,0,0,0,0,0,0,0,0,0,0,0,0,0,0,0,0,0,0,0,0,0,0,0,0,0,0,0,0,0,0,0,0,0,0,0,0,0,0,0,0,0,0,0,0,0,0,0,0,0,0,0,0,0,0,0,0],"sum_hessian":[1.018E3,8.75E2,1.43E2,7.26E2,1.49E2,9.9E1,4.4E1,2.33E2,4.93E2,3.2E1,1.17E2,9E0,9E1,3.5E1,9E0,1.33E2,1E2,4.2E1,4.51E2,2.4E1,8E0,8.3E1,3.4E1,1E0,8E0,6E1,3E1,3.2E1,3E0,5E0,4E0,1.22E2,1.1E1,3E0,9.7E1,2.7E1,1.5E1,5.6E1,3.95E2,1.9E1,5E0,4E0,4E0,6.4E1,1.9E1,2E1,1.4E1,2E0,6E0,3.5E1,2.5E1,5E0,2.5E1,2.8E1,4E0,1E0,2E0,1E0,4E0,3E0,1E0,1.21E2,1E0,4E0,7E0,1.2E1,8.5E1,4E0,2.3E1,7E0,8E0,3.7E1,1.9E1,1.5E2,2.45E2,3E0,1.6E1,4E0,1E0,1E0,3E0,1E0,3E0,3.5E1,2.9E1,6E0,1.3E1,2E0,1.8E1,8E0,6E0,2E1,1.5E1,1.5E1,1E1,2E0,3E0,2.1E1,4E0,1E1,1.8E1,3E0,1E0,3E0,1E0],"tree_param":{"num_deleted":"0","num_feature":"10","num_nodes":"105","size_leaf_vector":"1"}},{"base_weights":[6.2629566E0,-1.7938383E1,1.5344429E2,-9.751368E1,1.2243354E1,9.223675E1,2.8605115E2,-1.04314835E2,7.002452E1,-8.31939E0,1.3089577E2,-1.3259468E2,1.1592991E2,1.7591115E2,6.539501E2,-1.3763084E2,-9.3434525E1,-2.6689768E1,1.7207677E2,-2.0208363E1,1.7025989E2,1.1086457E2,4.6527823E2,1.1155683E1,-1.5559088E2,1.6892778E2,7.904088E0,1.7162773E1,2.8848557E2,2.881503E2,9.6211975E2,5.2504215E0,-1.4082776E2,-8.302548E1,-1.4623209E2,-2.6351057E1,3.107019E0,7.6446266E1,3.1973734E1,-8.484564E0,-1.3287317E2,9.602644E0,2.0434349E2,1.4410555E2,-7.987967E1,3.4920742E1,1.5701897E2,-6.638403E1,-3.156333E1,-4.2706005E1,1.874829E2,3.907848E1,-6.3687805E1,3.511289E2,-1.6656082E2,9.954203E1,-2.4613136E1,-1.49467535E1,1.0971282E2,3.3503336E2,5.152317E1,-4.5107292E1,-2.017089E1,-4.7873928E1,-2.2397242E1,-5.0365303E1,-3.916465E0,9.981055E0,-8.427546E0,1.3570725E1,8.1745607E-1,2.094953E1,-8.910985E0,4.4115932E1,-4.4472206E1,1.9842543E1,-7.872415E0,3.9045616E1,9.215129E1,1.2181228E1,7.6470474E1,-4.3669434E1,3.6217285E1,-4.681685E1,5.887432E1,4.385527E1,-1.0753776E0,2.0196402E1,2.6552502E2,3.596402E1,-8.6688354E1],"categories":[],"categories_nodes":[],"categories_segments":[],"categories_sizes":[],"default_left":[0,0,0,0,0,0,0,0,0,0,0,0,0,0,0,0,0,0,0,0,0,0,0,0,0,0,0,0,0,0,0,0,0,0,0,0,0,0,0,0,0,0,0,0,0,0,0,0,0,0,0,0,0,0,0,0,0,0,0,0,0,0,0,0,0,0,0,0,0,0,0,0,0,0,0,0,0,0,0,0,0,0,0,0,0,0,0,0,0,0,0],"id":6,"left_children":[1,3,5,7,9,11,13,15,17,19,21,23,25,27,29,31,33,35,37,39,41,43,45,-1,47,49,51,53,55,57,59,-1,61,63,65,-1,67,-1,69,71,73,75,77,79,81,-1,-1,-1,-1,-1,83,85,-1,87,89,-1,-1,-1,-1,-1,-1,-1,-1,-1,-1,-1,-1,-1,-1,-1,-1,-1,-1,-1,-1,-1,-1,-1,-1,-1,-1,-1,-1,-1,-1,-1,-1,-1,-1,-1,-1],"loss_changes":[3.6324155E6,2.1051012E6,1.1423978E6,2.8191275E5,1.552814E6,5.480685E5,1.7083805E6,7.123775E4,1.032918E5,1.156297E6,5.78037E5,4.4828766E4,5.196525E5,6.38405E5,8.50049E5,2.9741812E4,8.5683E4,1.1204831E4,4.981592E4,6.7251106E5,1.8421425E5,5.821581E5,4.045575E4,0E0,6.503578E3,3.79016E5,2.2109556E5,1.0402036E6,3.6430975E5,1.7549769E5,4.1939E5,0E0,2.77615E4,8.4817875E4,7.8548625E4,0E0,5.6398975E3,0E0,1.0404365E3,7.714746E5,2.2828419E5,1.592179E4,1.7363075E5,8.7265125E5,2.0204684E5,0E0,0E0,0E0,0E0,0E0,2.0526712E5,1.284689E5,0E0,8.4965694E5,4.2030578E5,0E0,0E0,0E0,0E0,0E0,0E0,0E0,0E0,0E0,0E0,0E0,0E0,0E0,0E0,0E0,0E0,0E0,0E0,0E0,0E0,0E0,0E0,0E0,0E0,0E0,0E0,0E0,0E0,0E0,0E0,0E0,0E0,0E0,0E0,0E0,0E0],"parents":[2147483647,0,0,1,1,2,2,3,3,4,4,5,5,6,6,7,7,8,8,9,9,10,10,11,11,12,12,13,13,14,14,15,15,16,16,17,17,18,18,19,19,20,20,21,21,22,22,24,24,25,25,26,26,27,27,28,28,29,29,30,30,32,32,33,33,34,34,36,36,38,38,39,39,40,40,41,41,42,42,43,43,44,44,50,50,51,51,53,53,54,54],"right_children":[2,4,6,8,10,12,14,16,18,20,22,24,26,28,30,32,34,36,38,40,42,44,46,-1,48,50,52,54,56,58,60,-1,62,64,66,-1,68,-1,70,72,74,76,78,80,82,-1,-1,-1,-1,-1,84,86,-1,88,90,-1,-1,-1,-1,-1,-1,-1,-1,-1,-1,-1,-1,-1,-1,-1,-1,-1,-1,-1,-1,-1,-1,-1,-1,-1,-1,-1,-1,-1,-1,-1,-1,-1,-1,-1,-1],"split_conditions":[7.9E1,4E0,1.58E2,7E0,2.7E1,1E0,1.03E2,5E0,5E0,6E0,1.44E2,6E0,1.3E1,1.74E2,5E0,3E0,7.9E1,3E0,6E0,2.2E1,5E0,1.03E2,3E0,1.1155683E1,5E0,5E0,1.03E2,1.3E1,1.8E2,1E0,3E1,5.2504215E0,7.5E1,5E0,1E0,-2.6351057E1,6.5E1,7.6446266E1,8E0,5E1,3E0,6.7E1,7.2E1,8E0,1.32E2,3.4920742E1,1.5701897E2,-6.638403E1,-3.156333E1,-4.2706005E1,4.4E1,8.4E1,-6.3687805E1,2E0,8.4E1,9.954203E1,-2.4613136E1,-1.49467535E1,1.0971282E2,3.3503336E2,5.152317E1,-4.5107292E1,-2.017089E1,-4.7873928E1,-2.2397242E1,-5.0365303E1,-3.916465E0,9.981055E0,-8.427546E0,1.3570725E1,8.1745607E-1,2.094953E1,-8.910985E0,4.4115932E1,-4.4472206E1,1.9842543E1,-7.872415E0,3.9045616E1,9.215129E1,1.2181228E1,7.6470474E1,-4.3669434E1,3.6217285E1,-4.681685E1,5.887432E1,4.385527E1,-1.0753776E0,2.0196402E1,2.6552502E2,3.596402E1,-8.6688354E1],"split_indices":[7,3,9,8,6,0,4,8,0,8,9,6,3,9,0,6,4,6,2,6,6,9,0,0,5,8,4,6,9,0,6,0,4,5,3,0,4,0,0,9,7,4,4,2,9,0,0,0,0,0,9,4,0,5,7,0,0,0,0,0,0,0,0,0,0,0,0,0,0,0,0,0,0,0,0,0,0,0,0,0,0,0,0,0,0,0,0,0,0,0,0],"split_type":[0,0,0,0,0,0,0,0,0,0,0,0,0,0,0,0,0,0,0,0,0,0,0,0,0,0,0,0,0,0,0,0,0,0,0,0,0,0,0,0,0,0,0,0,0,0,0,0,0,0,0,0,0,0,0,0,0,0,0,0,0,0,0,0,0,0,0,0,0,0,0,0,0,0,0,0,0,0,0,0,0,0,0,0,0,0,0,0,0,0,0],"sum_hessian":[1.018E3,8.75E2,1.43E2,2.4E2,6.35E2,9.9E1,4.4E1,2.31E2,9E0,5.42E2,9.3E1,9E0,9E1,3.5E1,9E0,5.4E1,1.77E2,5E0,4E0,5.09E2,3.3E1,8.9E1,4E0,1E0,8E0,6E1,3E1,1.5E1,2E1,5E0,4E0,1E0,5.3E1,1.5E2,2.7E1,1E0,4E0,2E0,2E0,4.62E2,4.7E1,6E0,2.7E1,7.6E1,1.3E1,1E0,3E0,2E0,6E0,3E0,5.7E1,2.7E1,3E0,5E0,1E1,1.8E1,2E0,1E0,4E0,3E0,1E0,4.6E1,7E0,1.3E1,1.37E2,2.3E1,4E0,2E0,2E0,1E0,1E0,9.8E1,3.64E2,2E0,4.5E1,2E0,4E0,1.7E1,1E1,4E1,3.6E1,1E1,3E0,1E0,5.6E1,7E0,2E1,4E0,1E0,3E0,7E0],"tree_param":{"num_deleted":"0","num_feature":"10","num_nodes":"91","size_leaf_vector":"1"}},{"base_weights":[5.3284764E0,-1.9514917E1,9.111797E1,5.72269E1,-3.8912346E1,7.824157E1,4.370484E2,-8.955981E1,8.769908E1,-4.7852867E1,1.4208922E2,7.083503E1,4.6418958E2,2.1980867E2,-4.1772614E1,-1.6786264E1,-1.0465031E2,5.7732967E1,1.9317297E2,-5.007386E1,8.917771E1,9.045137E1,3.8218817E2,7.995615E1,-1.7972903E2,1.802604E2,8.123145E0,1.7964315E1,-3.314751E1,2.3736776E1,-1.2894594E1,-4.9991547E1,-1.13526276E2,3.5125183E1,1.7269531E2,-4.5314297E1,2.5735724E2,-1.3181653E2,-4.1582733E1,-6.706705E1,1.13913216E2,4.4536137E1,1.4655797E2,2.319608E2,5.9317463E1,-6.339634E1,-1.6990553E1,2.8943281E1,-2.0859339E1,1.6770905E1,-6.089356E0,-1.774745E1,-1.998761E0,-3.525229E1,-6.2793183E0,6.58946E1,6.458034E0,-1.5493287E0,8.1053764E1,-4.2923717E1,3.9819523E1,1.0043057E2,9.777911E0,-3.1616152E1,-6.91068E1,-1.6773268E1,3.2218792E0,-8.728626E0,-2.7147291E1,-1.3047876E1,4.1909634E1,5.9541794E1,1.553515E2,1.1513174E1,6.467295E1],"categories":[],"categories_nodes":[],"categories_segments":[],"categories_sizes":[],"default_left":[0,0,0,0,0,0,0,0,0,0,0,0,0,0,0,0,0,0,0,0,0,0,0,0,0,0,0,0,0,0,0,0,0,0,0,0,0,0,0,0,0,0,0,0,0,0,0,0,0,0,0,0,0,0,0,0,0,0,0,0,0,0,0,0,0,0,0,0,0,0,0,0,0,0,0],"id":7,"left_children":[1,3,5,7,9,11,13,15,17,19,21,23,25,-1,27,29,31,33,35,37,-1,39,41,43,45,-1,-1,47,-1,49,-1,51,53,55,57,59,61,63,65,67,69,-1,-1,71,73,-1,-1,-1,-1,-1,-1,-1,-1,-1,-1,-1,-1,-1,-1,-1,-1,-1,-1,-1,-1,-1,-1,-1,-1,-1,-1,-1,-1,-1,-1],"loss_changes":[2.1735752E6,1.1797046E6,9.858484E5,7.235201E5,1.0295324E6,6.017155E5,1.163103E6,2.8992594E4,4.0921306E5,4.7707862E5,3.3737644E5,5.148785E5,2.2270562E5,0E0,1.8405178E4,7.389433E3,5.4830938E3,2.6683362E5,4.5556875E5,4.1097112E5,0E0,1.037273E5,5.1751E4,6.513219E5,1.914214E4,0E0,0E0,2.7316861E4,0E0,5.383996E3,0E0,1.5917588E3,4.5448594E3,2.1859272E5,2.961491E5,1.4083752E5,3.8927238E5,1.2156625E5,4.091775E5,9.2490625E2,9.942844E4,0E0,0E0,1.3656112E5,6.068812E5,0E0,0E0,0E0,0E0,0E0,0E0,0E0,0E0,0E0,0E0,0E0,0E0,0E0,0E0,0E0,0E0,0E0,0E0,0E0,0E0,0E0,0E0,0E0,0E0,0E0,0E0,0E0,0E0,0E0,0E0],"parents":[2147483647,0,0,1,1,2,2,3,3,4,4,5,5,6,6,7,7,8,8,9,9,10,10,11,11,12,12,14,14,15,15,16,16,17,17,18,18,19,19,21,21,22,22,23,23,24,24,27,27,29,29,31,31,32,32,33,33,34,34,35,35,36,36,37,37,38,38,39,39,40,40,43,43,44,44],"right_children":[2,4,6,8,10,12,14,16,18,20,22,24,26,-1,28,30,32,34,36,38,-1,40,42,44,46,-1,-1,48,-1,50,-1,52,54,56,58,60,62,64,66,68,70,-1,-1,72,74,-1,-1,-1,-1,-1,-1,-1,-1,-1,-1,-1,-1,-1,-1,-1,-1,-1,-1,-1,-1,-1,-1,-1,-1,-1,-1,-1,-1,-1,-1],"split_conditions":[7.3E1,4E1,1.2E1,4.6E1,7E0,1.07E2,1.6E1,5E0,1E1,3.7E1,9E0,1.05E2,2E0,2.1980867E2,4E0,2E0,1E0,9.9E1,5E0,1E0,8.917771E1,2.2E1,8.7E1,1.04E2,1.16E2,1.802604E2,8.123145E0,8.4E1,-3.314751E1,4.7E1,-1.2894594E1,2.9E1,3E1,4.8E1,5.3E1,1.7E1,1.1E1,8.4E1,9E0,4E0,4.6E1,4.4536137E1,1.4655797E2,1.9E1,1.74E2,-6.339634E1,-1.6990553E1,2.8943281E1,-2.0859339E1,1.6770905E1,-6.089356E0,-1.774745E1,-1.998761E0,-3.525229E1,-6.2793183E0,6.58946E1,6.458034E0,-1.5493287E0,8.1053764E1,-4.2923717E1,3.9819523E1,1.0043057E2,9.777911E0,-3.1616152E1,-6.91068E1,-1.6773268E1,3.2218792E0,-8.728626E0,-2.7147291E1,-1.3047876E1,4.1909634E1,5.9541794E1,1.553515E2,1.1513174E1,6.467295E1],"split_indices":[7,9,0,4,8,4,0,9,2,3,3,4,5,0,1,0,0,4,0,0,0,7,4,9,9,0,0,4,0,7,0,9,6,4,7,6,0,4,3,1,9,0,0,3,9,0,0,0,0,0,0,0,0,0,0,0,0,0,0,0,0,0,0,0,0,0,0,0,0,0,0,0,0,0,0],"split_type":[0,0,0,0,0,0,0,0,0,0,0,0,0,0,0,0,0,0,0,0,0,0,0,0,0,0,0,0,0,0,0,0,0,0,0,0,0,0,0,0,0,0,0,0,0,0,0,0,0,0,0,0,0,0,0,0,0,0,0,0,0,0,0,0,0,0,0,0,0,0,0,0,0,0,0],"sum_hessian":[1.018E3,7.9E2,2.28E2,1.59E2,6.31E2,2.21E2,7E0,2.7E1,1.32E2,6.02E2,2.9E1,2.18E2,3E0,4E0,3E0,5E0,2.2E1,1.04E2,2.8E1,5.99E2,3E0,2.5E1,4E0,2.11E2,7E0,2E0,1E0,2E0,1E0,2E0,3E0,4E0,1.8E1,8.8E1,1.6E1,6E0,2.2E1,5.5E1,5.44E2,3E0,2.2E1,2E0,2E0,2.4E1,1.87E2,5E0,2E0,1E0,1E0,1E0,1E0,3E0,1E0,1.7E1,1E0,5E0,8.3E1,6E0,1E1,4E0,2E0,1.6E1,6E0,4.5E1,1E1,4.27E2,1.17E2,2E0,1E0,3E0,1.9E1,2.3E1,1E0,1.66E2,2.1E1],"tree_param":{"num_deleted":"0","num_feature":"10","num_nodes":"75","size_leaf_vector":"1"}},{"base_weights":[4.6605287E0,-1.0444409E1,1.04498695E2,-5.4616062E1,9.94852E0,9.220562E1,1.8316837E2,-3.421025E-1,-1.0371875E2,3.223871E2,4.707158E0,7.6696915E1,4.7078738E2,-3.9219917E1,4.6826756E1,-6.8562836E1,-9.58451E1,3.7877957E2,1.9363415E1,-6.095162E1,2.509849E1,5.7595203E1,2.5654715E2,1.6244804E2,2.8194452E1,6.852773E1,-4.973482E1,-7.086777E1,6.592909E1,-1.0310998E2,-1.6941294E1,1.2011059E2,3.4148438E1,1.2455351E2,-7.594862E1,1.4280019E1,1.5513034E2,9.859055E1,1.5623663E1,1.1527598E2,3.4098712E2,-6.797663E-1,4.9102356E1,-9.33777E0,-3.5786644E1,-1.0189801E1,-3.255104E1,2.3084763E1,-9.965992E0,-1.7789295E1,-3.5311443E1,1.998829E1,-2.32501E1,7.264155E1,6.831268E0,1.7447956E1,-2.3855484E1,-1.8553183E1,8.710716E0,2.1339075E1,1.07405266E2,3.5735397E1,-1.4148455E1,7.8281903E-1,4.669676E1,-6.510047E0,5.675673E1,1.330703E2,4.5947956E1],"categories":[],"categories_nodes":[],"categories_segments":[],"categories_sizes":[],"default_left":[0,0,0,0,0,0,0,0,0,0,0,0,0,0,0,0,0,0,0,0,0,0,0,0,0,0,0,0,0,0,0,0,0,0,0,0,0,0,0,0,0,0,0,0,0,0,0,0,0,0,0,0,0,0,0,0,0,0,0,0,0,0,0,0,0,0,0,0,0],"id":8,"left_children":[1,3,5,7,9,11,-1,13,15,17,19,21,23,25,27,-1,29,31,-1,33,35,37,39,-1,-1,41,43,45,47,49,51,-1,-1,53,55,57,59,61,63,65,67,-1,-1,-1,-1,-1,-1,-1,-1,-1,-1,-1,-1,-1,-1,-1,-1,-1,-1,-1,-1,-1,-1,-1,-1,-1,-1,-1,-1],"loss_changes":[1.5377936E6,7.986427E5,7.773255E5,7.461636E5,9.925076E5,7.389054E5,0E0,2.4756869E5,1.2257E5,1.2095556E5,8.0217406E5,4.249612E5,8.2322E4,8.724701E4,1.4181494E5,0E0,7.8505E4,1.87125E2,0E0,4.045067E5,6.4066756E5,1.9977425E5,1.03839625E5,0E0,0E0,4.7521367E4,8.430111E4,8.813984E3,6.046586E4,7.4867875E4,7.0954766E4,0E0,0E0,1.2613542E5,6.7815875E4,4.7693566E5,5.710233E5,1.8214081E5,1.0711639E5,6.485142E4,6.6935125E4,0E0,0E0,0E0,0E0,0E0,0E0,0E0,0E0,0E0,0E0,0E0,0E0,0E0,0E0,0E0,0E0,0E0,0E0,0E0,0E0,0E0,0E0,0E0,0E0,0E0,0E0,0E0,0E0],"parents":[2147483647,0,0,1,1,2,2,3,3,4,4,5,5,7,7,8,8,9,9,10,10,11,11,12,12,13,13,14,14,16,16,17,17,19,19,20,20,21,21,22,22,25,25,26,26,27,27,28,28,29,29,30,30,33,33,34,34,35,35,36,36,37,37,38,38,39,39,40,40],"right_children":[2,4,6,8,10,12,-1,14,16,18,20,22,24,26,28,-1,30,32,-1,34,36,38,40,-1,-1,42,44,46,48,50,52,-1,-1,54,56,58,60,62,64,66,68,-1,-1,-1,-1,-1,-1,-1,-1,-1,-1,-1,-1,-1,-1,-1,-1,-1,-1,-1,-1,-1,-1,-1,-1,-1,-1,-1,-1],"split_conditions":[1.6E1,1.2E1,1.4E1,1E1,1.3E1,7E0,1.8316837E2,5E0,5E0,1.3E1,4.5E1,3E1,1.7E1,6E0,5E0,-6.8562836E1,7.6E1,2E0,1.9363415E1,2E0,2.3E1,5E0,5E0,1.6244804E2,2.8194452E1,4.4E1,7.5E1,8E0,1.35E2,3.7E1,8.7E1,1.2011059E2,3.4148438E1,1.4E1,3E0,3E0,9E0,9.3E1,4E0,9.3E1,9.6E1,-6.797663E-1,4.9102356E1,-9.33777E0,-3.5786644E1,-1.0189801E1,-3.255104E1,2.3084763E1,-9.965992E0,-1.7789295E1,-3.5311443E1,1.998829E1,-2.32501E1,7.264155E1,6.831268E0,1.7447956E1,-2.3855484E1,-1.8553183E1,8.710716E0,2.1339075E1,1.07405266E2,3.5735397E1,-1.4148455E1,7.8281903E-1,4.669676E1,-6.510047E0,5.675673E1,1.330703E2,4.5947956E1],"split_indices":[2,6,0,6,6,8,0,6,5,3,7,6,2,2,8,0,7,5,0,5,3,0,0,0,0,7,4,6,9,7,7,0,0,2,7,0,2,7,1,4,4,0,0,0,0,0,0,0,0,0,0,0,0,0,0,0,0,0,0,0,0,0,0,0,0,0,0,0,0],"split_type":[0,0,0,0,0,0,0,0,0,0,0,0,0,0,0,0,0,0,0,0,0,0,0,0,0,0,0,0,0,0,0,0,0,0,0,0,0,0,0,0,0,0,0,0,0,0,0,0,0,0,0,0,0,0,0,0,0,0,0,0,0,0,0,0,0,0,0,0,0],"sum_hessian":[1.018E3,8.85E2,1.33E2,2.79E2,6.06E2,1.31E2,2E0,1.33E2,1.46E2,9E0,5.97E2,1.27E2,4E0,7.3E1,6E1,7E0,1.39E2,7E0,2E0,1.41E2,4.56E2,1.16E2,1.1E1,3E0,1E0,6E0,6.7E1,8E0,5.2E1,1.27E2,1.2E1,6E0,1E0,1E1,1.31E2,4.22E2,3.4E1,5.8E1,5.8E1,5E0,6E0,4E0,2E0,5.4E1,1.3E1,5E0,3E0,4.7E1,5E0,3.3E1,9.4E1,5E0,7E0,4E0,6E0,3E0,1.28E2,6.8E1,3.54E2,2.5E1,9E0,5.1E1,7E0,5.4E1,4E0,2E0,3E0,3E0,3E0],"tree_param":{"num_deleted":"0","num_feature":"10","num_nodes":"69","size_leaf_vector":"1"}},{"base_weights":[4.1323338E0,-7.069157E0,7.8165085E1,1.3555842E1,-3.508061E1,6.824829E1,1.4653467E2,-3.7580986E1,3.1465189E1,-4.6949444E1,5.792573E1,5.3097504E1,3.312127E2,7.858808E1,-4.5644512E1,-1.6058634E1,6.0007137E1,-5.14319E1,1.2063158E2,-7.916614E1,1.1997108E2,3.283741E1,1.7283377E2,1.189251E2,1.1213468E2,7.8628975E-1,7.017887E1,-3.0526854E1,-7.587272E1,3.1501846E1,-9.741609E1,7.6473366E1,-9.652536E1,5.096927E0,-6.420192E1,9.4279375E0,2.5727914E2,-3.321783E1,-1.09475136E2,-5.1433094E1,1.5630923E2,4.6004E1,-7.742622E1,6.8228294E1,2.698583E2,6.3242214E1,-1.2781605E1,9.763526E0,-5.5278735E0,-4.131235E0,-1.9803406E1,-2.3901325E1,1.1409284E1,2.399526E1,-4.0789804E0,-5.6559498E1,-1.6946417E1,5.3584156E1,1.70916E1,6.002483E1,-3.5730667E1,-1.5078648E1,9.998179E0,-1.8249565E1,-6.8385574E1,-1.2440772E1,1.3573152E1,1.1442298E1,9.528346E1,-1.6497059E1,4.2426147E0,1.3448914E0,-3.7918587E1,-3.703711E0,-2.5921576E1,5.6308815E1,1.4635982E1,9.43608E0,2.1860896E2,1.7263538E1,-8.3368546E1,-3.0017736E1,3.6842262E1,9.769648E1,3.5609657E1],"categories":[],"categories_nodes":[],"categories_segments":[],"categories_sizes":[],"default_left":[0,0,0,0,0,0,0,0,0,0,0,0,0,0,0,0,0,0,0,0,0,0,0,0,0,0,0,0,0,0,0,0,0,0,0,0,0,0,0,0,0,0,0,0,0,0,0,0,0,0,0,0,0,0,0,0,0,0,0,0,0,0,0,0,0,0,0,0,0,0,0,0,0,0,0,0,0,0,0,0,0,0,0,0,0],"id":9,"left_children":[1,3,5,7,9,11,-1,13,15,17,19,21,23,25,27,29,31,33,35,37,39,41,43,-1,45,47,-1,49,51,53,55,57,59,61,63,65,67,69,71,73,75,77,79,81,83,-1,-1,-1,-1,-1,-1,-1,-1,-1,-1,-1,-1,-1,-1,-1,-1,-1,-1,-1,-1,-1,-1,-1,-1,-1,-1,-1,-1,-1,-1,-1,-1,-1,-1,-1,-1,-1,-1,-1,-1],"loss_changes":[8.45586E5,5.1234975E5,5.1186994E5,4.691702E5,4.177774E5,5.0831706E5,0E0,1.281725E5,5.1504772E5,2.5709644E5,3.7525188E5,2.9998397E5,5.5541625E4,1.0858867E5,5.480628E4,5.5639294E5,6.182493E5,2.3565838E5,1.3433572E5,1.5860539E4,1.9489481E5,1.6180773E5,1.6427538E5,0E0,5.4787367E4,4.8708525E3,0E0,4.963033E4,2.0768531E4,2.000571E5,1.8699681E5,4.1807812E5,1.7784934E5,9.700624E4,1.32924E5,1.2813795E4,4.07705E4,7.99563E3,1.5992133E4,7.13509E3,7.521275E4,9.50558E5,3.4068225E5,1.0413803E5,3.725275E4,0E0,0E0,0E0,0E0,0E0,0E0,0E0,0E0,0E0,0E0,0E0,0E0,0E0,0E0,0E0,0E0,0E0,0E0,0E0,0E0,0E0,0E0,0E0,0E0,0E0,0E0,0E0,0E0,0E0,0E0,0E0,0E0,0E0,0E0,0E0,0E0,0E0,0E0,0E0,0E0],"parents":[2147483647,0,0,1,1,2,2,3,3,4,4,5,5,7,7,8,8,9,9,10,10,11,11,12,12,13,13,14,14,15,15,16,16,17,17,18,18,19,19,20,20,21,21,22,22,24,24,25,25,27,27,28,28,29,29,30,30,31,31,32,32,33,33,34,34,35,35,36,36,37,37,38,38,39,39,40,40,41,41,42,42,43,43,44,44],"right_children":[2,4,6,8,10,12,-1,14,16,18,20,22,24,26,28,30,32,34,36,38,40,42,44,-1,46,48,-1,50,52,54,56,58,60,62,64,66,68,70,72,74,76,78,80,82,84,-1,-1,-1,-1,-1,-1,-1,-1,-1,-1,-1,-1,-1,-1,-1,-1,-1,-1,-1,-1,-1,-1,-1,-1,-1,-1,-1,-1,-1,-1,-1,-1,-1,-1,-1,-1,-1,-1,-1,-1],"split_conditions":[1.6E1,9.9E1,1.4E1,6.5E1,1.4E2,5E0,1.4653467E2,7E0,1E1,1.03E2,7.5E1,2.7E1,1.7E1,4E0,8E0,4E1,1.03E2,7E0,1.11E2,4.8E1,4.5E1,9.3E1,8E0,1.189251E2,3E0,1.6E1,7.017887E1,2.5E1,3.7E1,1.2E1,4.7E1,6E0,1.2E1,5E0,1.7E1,1.7E1,8E0,3E0,1.1E1,1.1E1,8.1E1,9.2E1,1.8E1,1.42E2,9.8E1,6.3242214E1,-1.2781605E1,9.763526E0,-5.5278735E0,-4.131235E0,-1.9803406E1,-2.3901325E1,1.1409284E1,2.399526E1,-4.0789804E0,-5.6559498E1,-1.6946417E1,5.3584156E1,1.70916E1,6.002483E1,-3.5730667E1,-1.5078648E1,9.998179E0,-1.8249565E1,-6.8385574E1,-1.2440772E1,1.3573152E1,1.1442298E1,9.528346E1,-1.6497059E1,4.2426147E0,1.3448914E0,-3.7918587E1,-3.703711E0,-2.5921576E1,5.6308815E1,1.4635982E1,9.43608E0,2.1860896E2,1.7263538E1,-8.3368546E1,-3.0017736E1,3.6842262E1,9.769648E1,3.5609657E1],"split_indices":[2,9,0,4,9,1,0,9,2,7,4,6,6,2,0,9,4,6,9,7,7,7,0,0,3,6,0,6,3,3,9,5,9,6,3,6,0,0,2,6,7,7,6,9,4,0,0,0,0,0,0,0,0,0,0,0,0,0,0,0,0,0,0,0,0,0,0,0,0,0,0,0,0,0,0,0,0,0,0,0,0,0,0,0,0],"split_type":[0,0,0,0,0,0,0,0,0,0,0,0,0,0,0,0,0,0,0,0,0,0,0,0,0,0,0,0,0,0,0,0,0,0,0,0,0,0,0,0,0,0,0,0,0,0,0,0,0,0,0,0,0,0,0,0,0,0,0,0,0,0,0,0,0,0,0,0,0,0,0,0,0,0,0,0,0,0,0,0,0,0,0,0,0],"sum_hessian":[1.018E3,8.85E2,1.33E2,5.1E2,3.75E2,1.31E2,2E0,1.32E2,3.78E2,3.33E2,4.2E1,1.25E2,6E0,8E0,1.24E2,1.42E2,2.36E2,3.25E2,8E0,1.3E1,2.9E1,1.08E2,1.7E1,4E0,2E0,6E0,2E0,8.4E1,4E1,9E1,5.2E1,2.14E2,2.2E1,6E1,2.65E2,5E0,3E0,6E0,7E0,5E0,2.4E1,9.7E1,1.1E1,9E0,8E0,1E0,1E0,2E0,4E0,5.8E1,2.6E1,3.9E1,1E0,4.3E1,4.7E1,1.5E1,3.7E1,3.3E1,1.81E2,1E0,2.1E1,2E1,4E1,2.61E2,4E0,2E0,3E0,1E0,2E0,4E0,2E0,1E0,6E0,3E0,2E0,1.8E1,6E0,9.6E1,1E0,7E0,4E0,2E0,7E0,5E0,3E0],"tree_param":{"num_deleted":"0","num_feature":"10","num_nodes":"85","size_leaf_vector":"1"}},{"base_weights":[3.5854676E0,-5.465726E1,1.1864573E1,-6.0541363E1,4.2424267E1,-1.2756948E0,5.5145145E1,-4.584759E1,-9.967123E1,-6.9354677E0,8.1463165E1,4.682417E1,1.15083565E2,-2.0371927E1,-7.317623E1,-7.4356427E0,-1.1989263E2,-2.8472942E1,1.54418335E1,4.520821E1,1.8611818E2,4.1746372E1,2.902776E2,6.9967666E0,-4.114833E1,-7.661849E1,-5.924886E-1,-3.0571955E1,2.6668242E1,-8.4445694E1,-1.467758E2,1.4583423E1,-3.896609E1,-4.060209E1,3.1262209E1,5.5809883E1,-8.294572E1,9.305408E1,9.7715065E1,1.1337426E2,3.817596E1,1.13736305E2,3.5620973E0,-6.9176526E0,2.240873E1,-1.3628468E1,1.1161313E1,-1.7792313E1,-2.8335657E1,2.0731459E1,-2.0998077E1,-1.2554737E1,-4.582491E1,-1.3714643E1,-4.794287E1,-2.2690153E0,4.114416E1,-8.742963E0,-2.5109543E1,-1.794944E1,8.410958E0,-3.3920982E1,1.1734054E1,2.4559885E1,-9.77778E0,-6.943762E1,3.211205E1,8.3326E0,5.777807E1,1.3196536E1,-3.2046738E1],"categories":[],"categories_nodes":[],"categories_segments":[],"categories_sizes":[],"default_left":[0,0,0,0,0,0,0,0,0,0,0,0,0,0,0,0,0,0,0,0,0,0,0,0,0,0,0,0,0,0,0,0,0,0,0,0,0,0,0,0,0,0,0,0,0,0,0,0,0,0,0,0,0,0,0,0,0,0,0,0,0,0,0,0,0,0,0,0,0,0,0],"id":10,"left_children":[1,3,5,7,-1,9,11,13,15,17,19,21,-1,23,25,27,29,31,33,35,37,39,41,43,45,47,49,-1,-1,51,53,55,57,59,61,63,65,67,-1,-1,69,-1,-1,-1,-1,-1,-1,-1,-1,-1,-1,-1,-1,-1,-1,-1,-1,-1,-1,-1,-1,-1,-1,-1,-1,-1,-1,-1,-1,-1,-1],"loss_changes":[4.920079E5,1.550819E5,5.0793578E5,6.6726E4,0E0,3.2180722E5,5.5053556E5,6.2561047E4,6.0657938E4,3.1033388E5,1.585335E5,2.400684E5,0E0,2.8150434E4,1.0948125E4,7.276139E4,1.33344375E4,1.4875762E5,2.8144625E5,5.0823164E4,1.1259859E5,2.268244E5,9.4435875E4,4.6486555E4,1.107968E4,7.3642812E3,1.9348115E4,0E0,0E0,3.4340797E4,1.1135E4,1.7747305E5,1.1356256E5,9.406891E4,2.843217E5,7.637864E4,1.0942151E5,4.663314E4,0E0,0E0,1.7325944E5,0E0,0E0,0E0,0E0,0E0,0E0,0E0,0E0,0E0,0E0,0E0,0E0,0E0,0E0,0E0,0E0,0E0,0E0,0E0,0E0,0E0,0E0,0E0,0E0,0E0,0E0,0E0,0E0,0E0,0E0],"parents":[2147483647,0,0,1,1,2,2,3,3,5,5,6,6,7,7,8,8,9,9,10,10,11,11,13,13,14,14,15,15,16,16,17,17,18,18,19,19,20,20,21,21,22,22,23,23,24,24,25,25,26,26,29,29,30,30,31,31,32,32,33,33,34,34,35,35,36,36,37,37,40,40],"right_children":[2,4,6,8,-1,10,12,14,16,18,20,22,-1,24,26,28,30,32,34,36,38,40,42,44,46,48,50,-1,-1,52,54,56,58,60,62,64,66,68,-1,-1,70,-1,-1,-1,-1,-1,-1,-1,-1,-1,-1,-1,-1,-1,-1,-1,-1,-1,-1,-1,-1,-1,-1,-1,-1,-1,-1,-1,-1,-1,-1],"split_conditions":[5E0,3.3E1,7.3E1,8.5E1,4.2424267E1,7E0,1.2E1,4E0,2.5E1,9E0,9E0,1.07E2,1.15083565E2,9.3E1,1.1E1,1.16E2,1.1E1,4E0,1.1E1,9E1,8.7E1,7.4E1,2E0,8E0,9E0,6E1,4E0,-3.0571955E1,2.6668242E1,1.5E1,1E0,2.1E1,7.5E1,1.28E2,1E0,1.7E1,8E0,5.9E1,9.7715065E1,1.1337426E2,1.05E2,1.13736305E2,3.5620973E0,-6.9176526E0,2.240873E1,-1.3628468E1,1.1161313E1,-1.7792313E1,-2.8335657E1,2.0731459E1,-2.0998077E1,-1.2554737E1,-4.582491E1,-1.3714643E1,-4.794287E1,-2.2690153E0,4.114416E1,-8.742963E0,-2.5109543E1,-1.794944E1,8.410958E0,-3.3920982E1,1.1734054E1,2.4559885E1,-9.77778E0,-6.943762E1,3.211205E1,8.3326E0,5.777807E1,1.3196536E1,-3.2046738E1],"split_indices":[8,3,7,4,0,8,0,8,7,5,3,4,0,9,0,9,6,5,6,4,4,7,5,2,3,4,1,0,0,2,0,3,4,9,0,6,0,7,0,0,4,0,0,0,0,0,0,0,0,0,0,0,0,0,0,0,0,0,0,0,0,0,0,0,0,0,0,0,0,0,0],"split_type":[0,0,0,0,0,0,0,0,0,0,0,0,0,0,0,0,0,0,0,0,0,0,0,0,0,0,0,0,0,0,0,0,0,0,0,0,0,0,0,0,0,0,0,0,0,0,0,0,0,0,0,0,0,0,0,0,0,0,0,0,0,0,0,0,0,0,0,0,0,0,0],"sum_hessian":[1.018E3,1.26E2,8.92E2,1.23E2,3E0,6.85E2,2.07E2,9.1E1,3.2E1,6.42E2,4.3E1,2.03E2,4E0,4.8E1,4.3E1,6E0,2.6E1,3.27E2,3.15E2,3.3E1,1E1,2E2,3E0,2.1E1,2.7E1,4.1E1,2E0,3E0,3E0,1.3E1,1.3E1,6.4E1,2.63E2,6.9E1,2.46E2,3.1E1,2E0,7E0,3E0,1E0,1.99E2,2E0,1E0,1.5E1,6E0,2.6E1,1E0,2.3E1,1.8E1,1E0,1E0,9E0,4E0,2E0,1.1E1,5.5E1,9E0,2.17E2,4.6E1,5.4E1,1.5E1,1.2E1,2.34E2,2.4E1,7E0,1E0,1E0,5E0,2E0,1.92E2,7E0],"tree_param":{"num_deleted":"0","num_feature":"10","num_nodes":"71","size_leaf_vector":"1"}},{"base_weights":[2.830348E0,-4.510535E0,5.1346703E1,-5.8578377E0,4.9652725E1,4.4987484E1,3.1403677E2,-3.6067724E0,-1.02473305E2,3.5002045E1,2.1829861E2,1.2071726E2,2.0599293E1,-7.77768E0,9.807317E1,-4.644189E1,-1.998971E2,2.3044544E1,1.466779E2,1.2282871E2,9.1394684E1,6.745782E1,-1.0592808E1,4.3702457E1,2.0778444E2,-1.6265896E1,-6.580948E1,-1.7670319E0,-2.3124991E2,-4.045581E1,3.7661175E1,1.9734126E2,-3.9841309E0,4.5844227E1,4.3308106E-1,1.3879226E0,4.8395817E1,-1.2646583E1,-1.742741E0,2.4395075E1,-4.940971E1,-1.8501966E1,8.235495E1,6.060233E-1,-2.3367748E1,-1.3089762E1,-7.801407E1,-5.65253E0,-3.990257E1,2.3622868E1,-2.075551E0,3.245335E1,8.452533E1,2.006936E1,-3.2494522E1],"categories":[],"categories_nodes":[],"categories_segments":[],"categories_sizes":[],"default_left":[0,0,0,0,0,0,0,0,0,0,0,0,0,0,0,0,0,0,0,0,0,0,0,0,0,0,0,0,0,0,0,0,0,0,0,0,0,0,0,0,0,0,0,0,0,0,0,0,0,0,0,0,0,0,0],"id":11,"left_children":[1,3,5,7,-1,9,11,13,15,17,19,-1,-1,21,23,25,27,29,31,33,-1,35,37,39,41,43,-1,-1,45,47,49,51,53,-1,-1,-1,-1,-1,-1,-1,-1,-1,-1,-1,-1,-1,-1,-1,-1,-1,-1,-1,-1,-1,-1],"loss_changes":[3.6315138E5,2.0392375E5,2.0971978E5,1.9101961E5,0E0,2.2079669E5,3.7409062E4,3.659108E5,9.9892234E4,1.6487572E5,2.0287375E4,0E0,0E0,1.7608292E5,1.9373203E5,6.9485586E4,4.1216562E4,1.0826214E5,9.23828E4,1.797829E4,0E0,1.761773E5,1.2039169E5,2.015266E5,2.147264E5,1.480708E4,0E0,0E0,2.1070344E4,4.1503547E4,1.7269728E5,3.7257188E4,3.682679E4,0E0,0E0,0E0,0E0,0E0,0E0,0E0,0E0,0E0,0E0,0E0,0E0,0E0,0E0,0E0,0E0,0E0,0E0,0E0,0E0,0E0,0E0],"parents":[2147483647,0,0,1,1,2,2,3,3,5,5,6,6,7,7,8,8,9,9,10,10,13,13,14,14,15,15,16,16,17,17,18,18,19,19,21,21,22,22,23,23,24,24,25,25,28,28,29,29,30,30,31,31,32,32],"right_children":[2,4,6,8,-1,10,12,14,16,18,20,-1,-1,22,24,26,28,30,32,34,-1,36,38,40,42,44,-1,-1,46,48,50,52,54,-1,-1,-1,-1,-1,-1,-1,-1,-1,-1,-1,-1,-1,-1,-1,-1,-1,-1,-1,-1,-1,-1],"split_conditions":[1.6E1,3.8E1,1.4E1,3.2E1,4.9652725E1,5E0,1.3E1,2.3E1,9E0,3E1,9E0,1.2071726E2,2.0599293E1,1.9E1,8E0,1.4E1,3E0,3E0,1.3E1,1.03E2,9.1394684E1,2.6E1,5E0,4E1,1.6E1,1E2,-6.580948E1,-1.7670319E0,6E1,7.3E1,1.8E1,1.71E2,9.4E1,4.5844227E1,4.3308106E-1,1.3879226E0,4.8395817E1,-1.2646583E1,-1.742741E0,2.4395075E1,-4.940971E1,-1.8501966E1,8.235495E1,6.060233E-1,-2.3367748E1,-1.3089762E1,-7.801407E1,-5.65253E0,-3.990257E1,2.3622868E1,-2.075551E0,3.245335E1,8.452533E1,2.006936E1,-3.2494522E1],"split_indices":[2,3,0,3,0,1,6,3,2,6,3,0,0,9,2,0,0,3,3,4,0,6,8,9,6,4,0,0,4,7,6,9,4,0,0,0,0,0,0,0,0,0,0,0,0,0,0,0,0,0,0,0,0,0,0],"split_type":[0,0,0,0,0,0,0,0,0,0,0,0,0,0,0,0,0,0,0,0,0,0,0,0,0,0,0,0,0,0,0,0,0,0,0,0,0,0,0,0,0,0,0,0,0,0,0,0,0,0,0,0,0,0,0],"sum_hessian":[1.018E3,8.85E2,1.33E2,8.79E2,6E0,1.31E2,2E0,8.6E2,1.9E1,1.25E2,6E0,1E0,1E0,8.27E2,3.3E1,1.3E1,6E0,1.14E2,1.1E1,4E0,2E0,2.9E1,7.98E2,2.3E1,1E1,1.2E1,1E0,1E0,5E0,2.1E1,9.3E1,8E0,3E0,3E0,1E0,1.8E1,1.1E1,1.04E2,6.94E2,2E1,3E0,2E0,8E0,1E1,2E0,1E0,4E0,1.8E1,3E0,4.8E1,4.5E1,5E0,3E0,2E0,1E0],"tree_param":{"num_deleted":"0","num_feature":"10","num_nodes":"55","size_leaf_vector":"1"}},{"base_weights":[2.2776024E0,-2.82684E0,4.536069E1,-5.5522275E0,5.1063812E1,1.491502E2,7.1699853E0,-1.6804287E1,6.4062443E0,-3.1678694E1,5.716277E1,1.0295377E2,9.442835E1,-9.4057396E1,5.2232746E1,7.8621573E0,-2.575009E1,-4.6180813E1,1.4248315E1,3.2767166E1,1.1745415E2,1.5122914E2,-6.512057E1,1.6486008E1,-1.0988086E2,1.9315318E2,3.46297E1,1.3861185E2,-2.714712E0,-1.1395029E1,-4.322895E1,-7.803905E1,-1.7789688E0,7.4112305E1,-1.8466659E0,-3.9249363E1,5.8408062E1,8.731634E1,5.3628643E1,-7.010779E0,1.628743E2,7.8808594E0,-9.5897316E1,-1.1568042E1,2.724367E1,-1.327944E2,-5.415967E0,-8.609156E0,1.8029474E2,-1.8697844E1,9.540226E1,-1.9269947E1,5.1598988E1,5.092432E1,-3.2021847E0,-8.934139E0,-5.6406623E-1,-1.3851764E1,5.8421925E1,3.3275356E1,-2.830003E1,1.2130243E1,-6.461796E0,-2.811334E-1,4.2558804E1,-2.9473011E0,2.3952621E1,-2.5590658E1,2.4387112E1,2.3545483E1,-1.847927E1,-5.8760563E1,3.0934118E1,2.2692848E1,5.284911E1,7.4320316E0,-3.8856447E0,-8.72937E0,-3.159681E1,1.0748658E0,-4.2308205E1,-2.113551E1,1.8427528E1,-5.999896E1,2.6771046E1,-1.6657488E1,4.8543568E1,8.798942E0,6.716429E1],"categories":[],"categories_nodes":[],"categories_segments":[],"categories_sizes":[],"default_left":[0,0,0,0,0,0,0,0,0,0,0,0,0,0,0,0,0,0,0,0,0,0,0,0,0,0,0,0,0,0,0,0,0,0,0,0,0,0,0,0,0,0,0,0,0,0,0,0,0,0,0,0,0,0,0,0,0,0,0,0,0,0,0,0,0,0,0,0,0,0,0,0,0,0,0,0,0,0,0,0,0,0,0,0,0,0,0,0,0],"id":12,"left_children":[1,3,5,7,9,11,13,15,17,-1,19,-1,21,23,25,27,29,31,33,35,37,39,41,43,45,47,49,51,53,55,57,59,61,63,65,67,69,-1,71,-1,73,75,77,-1,-1,79,81,83,-1,85,87,-1,-1,-1,-1,-1,-1,-1,-1,-1,-1,-1,-1,-1,-1,-1,-1,-1,-1,-1,-1,-1,-1,-1,-1,-1,-1,-1,-1,-1,-1,-1,-1,-1,-1,-1,-1,-1,-1],"loss_changes":[2.2422177E5,1.3423162E5,4.2702044E5,1.1703808E5,4.807632E4,2.755053E5,3.698397E5,9.905863E4,1.7468716E5,0E0,5.9397688E4,0E0,2.2734823E5,4.5540984E4,1.3222638E5,1.6632697E5,8.205683E4,7.7662195E4,3.5470844E5,6.138267E4,1.1735266E5,4.0404312E4,1.6482979E4,1.986722E4,5.1941312E4,4.9888144E5,1.6706725E5,7.199528E4,1.5555084E5,3.1781967E4,1.1266319E5,1.08989234E5,2.0890424E4,3.9673372E5,1.90425E5,5.6895004E4,6.265861E4,0E0,1.4366061E5,0E0,6.3817812E3,1.3766388E3,8.337891E1,0E0,0E0,2.0715469E4,2.606279E4,1.1147947E5,0E0,1.9511888E5,1.9716727E5,0E0,0E0,0E0,0E0,0E0,0E0,0E0,0E0,0E0,0E0,0E0,0E0,0E0,0E0,0E0,0E0,0E0,0E0,0E0,0E0,0E0,0E0,0E0,0E0,0E0,0E0,0E0,0E0,0E0,0E0,0E0,0E0,0E0,0E0,0E0,0E0,0E0,0E0],"parents":[2147483647,0,0,1,1,2,2,3,3,4,4,5,5,6,6,7,7,8,8,10,10,12,12,13,13,14,14,15,15,16,16,17,17,18,18,19,19,20,20,21,21,22,22,23,23,24,24,25,25,26,26,27,27,28,28,29,29,30,30,31,31,32,32,33,33,34,34,35,35,36,36,38,38,40,40,41,41,42,42,45,45,46,46,47,47,49,49,50,50],"right_children":[2,4,6,8,10,12,14,16,18,-1,20,-1,22,24,26,28,30,32,34,36,38,40,42,44,46,48,50,52,54,56,58,60,62,64,66,68,70,-1,72,-1,74,76,78,-1,-1,80,82,84,-1,86,88,-1,-1,-1,-1,-1,-1,-1,-1,-1,-1,-1,-1,-1,-1,-1,-1,-1,-1,-1,-1,-1,-1,-1,-1,-1,-1,-1,-1,-1,-1,-1,-1,-1,-1,-1,-1,-1,-1],"split_conditions":[8E1,7E0,8.4E1,9E0,1E0,1.7E1,9.1E1,4E0,3.2E1,-3.1678694E1,8.7E1,1.0295377E2,1.3E1,7.1E1,9.3E1,8.4E1,6E0,1.16E2,4.8E1,3.7E1,3E1,1E0,3E0,3E0,1.1E1,2E0,9.9E1,1E0,6E0,3E0,1.51E2,3E0,1E0,6.9E1,2.7E1,6.9E1,6.9E1,8.731634E1,4.6E1,-7.010779E0,3E0,9.3E1,2E0,-1.1568042E1,2.724367E1,1E0,1.5E1,7E0,1.8029474E2,2E1,9E0,-1.9269947E1,5.1598988E1,5.092432E1,-3.2021847E0,-8.934139E0,-5.6406623E-1,-1.3851764E1,5.8421925E1,3.3275356E1,-2.830003E1,1.2130243E1,-6.461796E0,-2.811334E-1,4.2558804E1,-2.9473011E0,2.3952621E1,-2.5590658E1,2.4387112E1,2.3545483E1,-1.847927E1,-5.8760563E1,3.0934118E1,2.2692848E1,5.284911E1,7.4320316E0,-3.8856447E0,-8.72937E0,-3.159681E1,1.0748658E0,-4.2308205E1,-2.113551E1,1.8427528E1,-5.999896E1,2.6771046E1,-1.6657488E1,4.8543568E1,8.798942E0,6.716429E1],"split_indices":[7,8,7,5,7,6,7,5,7,0,4,0,3,4,7,4,3,9,7,9,9,5,0,0,0,5,7,3,3,0,9,7,3,4,6,4,4,0,9,0,0,4,5,0,0,5,2,3,0,6,3,0,0,0,0,0,0,0,0,0,0,0,0,0,0,0,0,0,0,0,0,0,0,0,0,0,0,0,0,0,0,0,0,0,0,0,0,0,0],"split_type":[0,0,0,0,0,0,0,0,0,0,0,0,0,0,0,0,0,0,0,0,0,0,0,0,0,0,0,0,0,0,0,0,0,0,0,0,0,0,0,0,0,0,0,0,0,0,0,0,0,0,0,0,0,0,0,0,0,0,0,0,0,0,0,0,0,0,0,0,0,0,0,0,0,0,0,0,0,0,0,0,0,0,0,0,0,0,0,0,0],"sum_hessian":[1.018E3,9.11E2,1.07E2,8.68E2,4.3E1,2.8E1,7.9E1,4.47E2,4.21E2,1E0,4.2E1,5E0,2.3E1,2.4E1,5.5E1,1.19E2,3.28E2,5.4E1,3.67E2,3.1E1,1.1E1,1.7E1,6E0,3E0,2.1E1,5E0,5E1,8E0,1.11E2,1.81E2,1.47E2,3.1E1,2.3E1,7.7E1,2.9E2,8E0,2.3E1,2E0,9E0,1E0,1.6E1,2E0,4E0,2E0,1E0,1.7E1,4E0,4E0,1E0,2.7E1,2.3E1,1E0,7E0,4E0,1.07E2,6.1E1,1.2E2,1.46E2,1E0,2E0,2.9E1,7E0,1.6E1,3.7E1,4E1,2.65E2,2.5E1,6E0,2E0,2E1,3E0,1E0,8E0,3E0,1.3E1,1E0,1E0,1E0,3E0,1E0,1.6E1,2E0,2E0,1E0,3E0,2.3E1,4E0,1.6E1,7E0],"tree_param":{"num_deleted":"0","num_feature":"10","num_nodes":"89","size_leaf_vector":"1"}},{"base_weights":[2.1655383E0,-2.264205E0,3.2744884E1,7.1019473E0,-1.51117325E1,2.7400116E1,7.442757E1,-1.78549E1,2.158115E1,-1.2995486E1,-1.4344765E2,-2.6367323E1,4.357994E1,2.303629E0,-5.7578E1,-2.560525E1,3.6715546E1,-1.8254225E1,2.7542192E1,-7.885794E0,-1.6162277E2,5.0440197E1,-4.767088E1,5.814704E1,-2.4393114E1,6.6256676E1,-1.5626261E1,3.9505234E1,-9.07621E1,-1.7587704E1,-1.0670427E2,2.0561118E2,3.0956707E1,-1.11263916E2,-1.5589609E1,5.298794E1,-6.172758E1,-6.219736E1,-1.8614033E1,9.830606E1,-1.0035713E1,-2.5096836E1,-8.2505745E1,4.6103004E1,1.5325053E2,-8.159188E1,1.03603065E2,-6.6270986E0,6.144035E1,6.662102E0,-1.3021693E1,-2.5264702E0,3.863239E1,1.6582417E1,-3.1588327E1,-2.7562468E1,-3.2619164E0,-4.1199284E0,-4.2343838E1,7.013019E1,2.4228565E1,2.5854232E0,1.824074E1,-4.9421917E1,-1.0660599E1,-5.31433E0,1.8011776E1,4.926429E1,-5.958901E-2,6.5015078E0,-2.202064E1,5.679679E1,1.4578979E0,2.921901E0,-5.962219E0,6.886493E0,-1.0080307E1,-7.4767275E0,-2.8619333E1,1.8026882E1,-4.0924E1,-6.583029E1,1.2159017E0,4.0352684E1,-7.638941E0],"categories":[],"categories_nodes":[],"categories_segments":[],"categories_sizes":[],"default_left":[0,0,0,0,0,0,0,0,0,0,0,0,0,0,0,0,0,0,0,0,0,0,0,0,0,0,0,0,0,0,0,0,0,0,0,0,0,0,0,0,0,0,0,0,0,0,0,0,0,0,0,0,0,0,0,0,0,0,0,0,0,0,0,0,0,0,0,0,0,0,0,0,0,0,0,0,0,0,0,0,0,0,0,0,0],"id":13,"left_children":[1,3,5,7,9,11,-1,13,15,17,19,21,23,25,27,29,31,33,35,-1,37,39,41,43,45,47,49,51,53,55,57,59,61,63,65,67,69,-1,-1,71,73,75,77,79,-1,81,83,-1,-1,-1,-1,-1,-1,-1,-1,-1,-1,-1,-1,-1,-1,-1,-1,-1,-1,-1,-1,-1,-1,-1,-1,-1,-1,-1,-1,-1,-1,-1,-1,-1,-1,-1,-1,-1,-1],"loss_changes":[1.3810653E5,1.0732305E5,1.416787E5,1.8684464E5,1.0025379E5,1.1163246E5,0E0,1.522769E5,2.3446314E5,7.959144E4,8.528164E3,5.1492727E4,9.845506E4,1.4666256E5,2.0976928E5,5.0140527E4,2.3485047E5,7.980318E4,1.0094689E5,0E0,9.890172E3,2.1249695E4,1.6802098E4,4.180766E5,1.4023519E5,3.4724388E5,1.060624E5,7.381723E4,1.0768828E5,3.5913156E4,2.047632E4,9.242656E3,1.6015394E5,3.0592742E4,5.264764E4,2.0116803E5,1.1327238E4,0E0,0E0,3.310064E4,9.717954E2,7.309574E3,4.303754E3,2.1241967E5,0E0,1.5436088E5,2.7358434E4,0E0,0E0,0E0,0E0,0E0,0E0,0E0,0E0,0E0,0E0,0E0,0E0,0E0,0E0,0E0,0E0,0E0,0E0,0E0,0E0,0E0,0E0,0E0,0E0,0E0,0E0,0E0,0E0,0E0,0E0,0E0,0E0,0E0,0E0,0E0,0E0,0E0,0E0],"parents":[2147483647,0,0,1,1,2,2,3,3,4,4,5,5,7,7,8,8,9,9,10,10,11,11,12,12,13,13,14,14,15,15,16,16,17,17,18,18,20,20,21,21,22,22,23,23,24,24,25,25,26,26,27,27,28,28,29,29,30,30,31,31,32,32,33,33,34,34,35,35,36,36,39,39,40,40,41,41,42,42,43,43,45,45,46,46],"right_children":[2,4,6,8,10,12,-1,14,16,18,20,22,24,26,28,30,32,34,36,-1,38,40,42,44,46,48,50,52,54,56,58,60,62,64,66,68,70,-1,-1,72,74,76,78,80,-1,82,84,-1,-1,-1,-1,-1,-1,-1,-1,-1,-1,-1,-1,-1,-1,-1,-1,-1,-1,-1,-1,-1,-1,-1,-1,-1,-1,-1,-1,-1,-1,-1,-1,-1,-1,-1,-1,-1,-1],"split_conditions":[1.46E2,9.9E1,1.14E2,8E0,1.7E1,7.8E1,7.442757E1,4E1,4E0,1.5E1,3E0,2.7E1,9.3E1,1E0,6E0,7.9E1,7E0,1E0,1.44E2,-7.885794E0,1.21E2,2E0,6.2E1,9.2E1,1.69E2,3.1E1,7E0,6.9E1,1E0,1.3E1,7E0,8E0,1E1,8E0,1.03E2,2E0,3E0,-6.219736E1,-1.8614033E1,2.6E1,3E0,1E0,1.47E2,9E1,1.5325053E2,3E0,3.1E1,-6.6270986E0,6.144035E1,6.662102E0,-1.3021693E1,-2.5264702E0,3.863239E1,1.6582417E1,-3.1588327E1,-2.7562468E1,-3.2619164E0,-4.1199284E0,-4.2343838E1,7.013019E1,2.4228565E1,2.5854232E0,1.824074E1,-4.9421917E1,-1.0660599E1,-5.31433E0,1.8011776E1,4.926429E1,-5.958901E-2,6.5015078E0,-2.202064E1,5.679679E1,1.4578979E0,2.921901E0,-5.962219E0,6.886493E0,-1.0080307E1,-7.4767275E0,-2.8619333E1,1.8026882E1,-4.0924E1,-6.583029E1,1.2159017E0,4.0352684E1,-7.638941E0],"split_indices":[9,9,4,2,3,4,0,9,3,2,0,4,7,1,2,4,3,5,9,0,9,1,4,7,9,9,0,4,3,7,5,0,0,3,7,1,0,0,0,4,0,0,9,7,0,0,6,0,0,0,0,0,0,0,0,0,0,0,0,0,0,0,0,0,0,0,0,0,0,0,0,0,0,0,0,0,0,0,0,0,0,0,0,0,0],"split_type":[0,0,0,0,0,0,0,0,0,0,0,0,0,0,0,0,0,0,0,0,0,0,0,0,0,0,0,0,0,0,0,0,0,0,0,0,0,0,0,0,0,0,0,0,0,0,0,0,0,0,0,0,0,0,0,0,0,0,0,0,0,0,0,0,0,0,0,0,0,0,0,0,0,0,0,0,0,0,0,0,0,0,0,0,0],"sum_hessian":[1.018E3,8.9E2,1.28E2,5.15E2,3.75E2,1.26E2,2E0,1.89E2,3.26E2,3.7E2,5E0,2.9E1,9.7E1,1.26E2,6.3E1,7.9E1,2.47E2,3.28E2,4.2E1,1E0,4E0,6E0,2.3E1,8E1,1.7E1,2.7E1,9.9E1,1.6E1,4.7E1,7.3E1,6E0,7E0,2.4E2,8E0,3.2E2,3.3E1,9E0,2E0,2E0,3E0,3E0,1.5E1,8E0,7.9E1,1E0,1.2E1,5E0,1.7E1,1E1,4.2E1,5.7E1,1.1E1,5E0,4E0,4.3E1,5E0,6.8E1,2E0,4E0,5E0,2E0,1.38E2,1.02E2,4E0,4E0,3.12E2,8E0,1E1,2.3E1,1E0,8E0,1E0,2E0,1E0,2E0,2E0,1.3E1,2E0,6E0,7.4E1,5E0,4E0,8E0,4E0,1E0],"tree_param":{"num_deleted":"0","num_feature":"10","num_nodes":"85","size_leaf_vector":"1"}},{"base_weights":[1.7061223E0,-1.555825E0,2.9235657E1,-2.4507356E0,3.434803E1,-1.5092943E1,6.630675E1,-5.863793E-1,-7.73373E1,2.3827126E1,-1.0749491E2,1.1630903E2,1.7391495E1,-3.533345E0,7.560599E1,-3.5176044E1,-1.3432846E2,-3.337863E0,2.419815E2,-1.8742274E2,1.0625863E1,1.8350726E2,1.9487558E1,-5.5493786E1,6.025309E1,5.380336E1,-5.2581754E0,4.9679573E1,2.5115259E2,-6.923624E0,-6.036863E1,-6.702924E0,-1.4553375E2,-5.1537228E1,3.9691452E1,1.3026295E2,3.316878E1,-2.268871E1,-9.440167E1,-3.5822643E1,4.3397537E1,1.0150137E2,2.8615836E2,5.3516216E1,-5.832845E1,-4.2663433E1,-1.0786628E1,9.9568306E1,-4.807713E1,-7.937048E0,5.30518E1,-1.2528151E0,-2.803999E1,-6.686496E0,2.1765572E1,1.47323E0,9.947889E1,-9.063717E0,1.0914264E1,-4.7642403E1,-7.892093E0,3.3469814E1,-2.0954556E1,-1.3267313E0,2.2627445E1,1.958639E1,-4.660437E0,2.1510727E0,-2.1318678E1,-1.7338642E1,1.1106226E1,5.147267E1,4.353089E0,1.012816E2,-3.3785157E0,4.405362E1,1.8270997E0,2.0865469E1,-2.6690248E1,4.6175865E1,-1.1975421E1,-3.21333E1,1.399812E1],"categories":[],"categories_nodes":[],"categories_segments":[],"categories_sizes":[],"default_left":[0,0,0,0,0,0,0,0,0,0,0,0,0,0,0,0,0,0,0,0,0,0,0,0,0,0,0,0,0,0,0,0,0,0,0,0,0,0,0,0,0,0,0,0,0,0,0,0,0,0,0,0,0,0,0,0,0,0,0,0,0,0,0,0,0,0,0,0,0,0,0,0,0,0,0,0,0,0,0,0,0,0,0],"id":14,"left_children":[1,3,5,7,-1,9,11,13,15,17,19,21,23,25,27,29,31,33,35,37,39,41,43,45,47,49,51,53,55,57,-1,-1,59,61,63,-1,65,67,-1,69,-1,71,73,75,-1,-1,77,79,81,-1,-1,-1,-1,-1,-1,-1,-1,-1,-1,-1,-1,-1,-1,-1,-1,-1,-1,-1,-1,-1,-1,-1,-1,-1,-1,-1,-1,-1,-1,-1,-1,-1,-1],"loss_changes":[9.155158E4,9.4995164E4,1.7847822E5,1.2644606E5,0E0,1.8237584E5,1.4228377E5,1.9898175E5,4.813686E4,2.141495E5,1.4360862E5,1.851046E5,1.0018703E5,8.464126E4,1.3771553E5,6.4286246E4,8.0417812E3,7.048712E4,1.4615667E5,1.8152138E5,4.876134E4,1.1406044E5,1.0503549E5,4.4988816E4,8.996746E4,2.5155081E5,7.8739875E4,5.0999273E4,7.7606016E4,1.4209762E4,0E0,0E0,8.483422E3,5.5578812E4,2.8707637E4,0E0,5.7071904E3,7.73145E3,0E0,1.1743084E4,0E0,6.4564523E4,1.109115E5,5.2220285E4,0E0,0E0,6.2716008E4,1.19863016E5,3.8554176E4,0E0,0E0,0E0,0E0,0E0,0E0,0E0,0E0,0E0,0E0,0E0,0E0,0E0,0E0,0E0,0E0,0E0,0E0,0E0,0E0,0E0,0E0,0E0,0E0,0E0,0E0,0E0,0E0,0E0,0E0,0E0,0E0,0E0,0E0],"parents":[2147483647,0,0,1,1,2,2,3,3,5,5,6,6,7,7,8,8,9,9,10,10,11,11,12,12,13,13,14,14,15,15,16,16,17,17,18,18,19,19,20,20,21,21,22,22,23,23,24,24,25,25,26,26,27,27,28,28,29,29,32,32,33,33,34,34,36,36,37,37,39,39,41,41,42,42,43,43,46,46,47,47,48,48],"right_children":[2,4,6,8,-1,10,12,14,16,18,20,22,24,26,28,30,32,34,36,38,40,42,44,46,48,50,52,54,56,58,-1,-1,60,62,64,-1,66,68,-1,70,-1,72,74,76,-1,-1,78,80,82,-1,-1,-1,-1,-1,-1,-1,-1,-1,-1,-1,-1,-1,-1,-1,-1,-1,-1,-1,-1,-1,-1,-1,-1,-1,-1,-1,-1,-1,-1,-1,-1,-1,-1],"split_conditions":[8E1,3.8E1,9.4E1,3.2E1,3.434803E1,1.8E1,2E0,2.3E1,9E0,9.3E1,2E1,1.67E2,9.9E1,1.7E1,7.3E1,1.4E1,3E0,1.4E1,3E0,8.7E1,7E0,8.1E1,8.4E1,9E0,1.08E2,1E1,1.9E1,6E0,2E0,4.9E1,-6.036863E1,-6.702924E0,1.21E2,8.2E1,9.1E1,1.3026295E2,1.1E1,5E0,-9.440167E1,1.76E2,4.3397537E1,1.5E1,6E0,1.5E1,-5.832845E1,-4.2663433E1,3E0,1.9E1,1.7E1,-7.937048E0,5.30518E1,-1.2528151E0,-2.803999E1,-6.686496E0,2.1765572E1,1.47323E0,9.947889E1,-9.063717E0,1.0914264E1,-4.7642403E1,-7.892093E0,3.3469814E1,-2.0954556E1,-1.3267313E0,2.2627445E1,1.958639E1,-4.660437E0,2.1510727E0,-2.1318678E1,-1.7338642E1,1.1106226E1,5.147267E1,4.353089E0,1.012816E2,-3.3785157E0,4.405362E1,1.8270997E0,2.0865469E1,-2.6690248E1,4.6175865E1,-1.1975421E1,-3.21333E1,1.399812E1],"split_indices":[7,3,4,3,0,6,1,3,2,4,6,9,7,9,9,0,0,3,0,7,5,7,7,3,7,0,3,2,0,9,0,0,9,9,7,0,0,0,0,9,0,2,5,6,0,0,0,6,6,0,0,0,0,0,0,0,0,0,0,0,0,0,0,0,0,0,0,0,0,0,0,0,0,0,0,0,0,0,0,0,0,0,0],"split_type":[0,0,0,0,0,0,0,0,0,0,0,0,0,0,0,0,0,0,0,0,0,0,0,0,0,0,0,0,0,0,0,0,0,0,0,0,0,0,0,0,0,0,0,0,0,0,0,0,0,0,0,0,0,0,0,0,0,0,0,0,0,0,0,0,0,0,0,0,0,0,0,0,0,0,0,0,0,0,0,0,0,0,0],"sum_hessian":[1.018E3,9.11E2,1.07E2,9.05E2,6E0,4.9E1,5.8E1,8.84E2,2.1E1,3.5E1,1.4E1,2.8E1,3E1,8.52E2,3.2E1,1.3E1,8E0,3.2E1,3E0,8E0,6E0,1.6E1,1.2E1,1.1E1,1.9E1,2.4E1,8.28E2,2.9E1,3E0,1.2E1,1E0,1E0,7E0,1.5E1,1.7E1,1E0,2E0,4E0,4E0,5E0,1E0,1E1,6E0,1.1E1,1E0,3E0,8E0,1.4E1,5E0,1.5E1,9E0,8.19E2,9E0,7E0,2.2E1,1E0,2E0,8E0,4E0,6E0,1E0,1E0,1.4E1,8E0,9E0,1E0,1E0,3E0,1E0,4E0,1E0,5E0,5E0,5E0,1E0,3E0,8E0,4E0,4E0,1E1,4E0,3E0,2E0],"tree_param":{"num_deleted":"0","num_feature":"10","num_nodes":"83","size_leaf_vector":"1"}},{"base_weights":[1.4463995E0,-1.9918037E1,4.483171E0,-9.281409E0,-4.873936E1,9.89591E-1,2.5939812E1,8.363523E0,-2.9522547E1,1.177642E1,-6.2127613E1,-1.8500294E1,5.6643147E0,2.0940033E1,1.4174649E2,-3.3923745E0,3.6803833E1,-3.962654E1,-2.3802114E0,2.3921913E1,-3.1356836E1,1.444397E1,-6.857327E1,-3.560241E1,6.775029E1,1.3925079E1,-1.5468406E1,1.8227768E1,5.196178E1,4.853372E1,9.242432E0,-1.3431493E1,3.4678368E1,9.172226E1,1.5430705E1,-4.480772E1,2.5394104E1,-2.976477E1,1.30979E1,-4.3342194E1,2.4876893E0,8.740137E0,-2.2403505E0,-3.9733894E1,-5.4483475E1,-2.8933744E0,-5.4611553E1,1.7098157E2,-1.2469328E1,-1.34284935E1,2.5430159E1,2.7054157E1,-4.084132E1,3.819598E1,-3.7761173E0,-1.5921721E1,-2.118391E0,1.4030457E0,1.9053215E1,3.1618837E1,7.605103E0,8.144403E0,9.548741E-1,-8.760328E0,-2.0732996E1,-2.844104E0,1.4271451E1,-3.3385623E0,-1.5646455E1,7.447696E0,-1.2108619E1,-2.0609756E1,-3.59704E0,-1.9599365E1,-7.0960695E-1,3.836621E0,-1.0223028E1,-1.9550407E1,1.0420571E1,1.786602E1,8.783541E1,-1.3438766E1,9.262417E0,2.769568E1,-6.0108128E0,-3.6094397E-2,1.1246878E1,-1.2687484E1,2.476478E1,6.005404E0,-2.4059723E1,-5.860538E-1,3.55764E1,1.446955E1,-1.1799247E1],"categories":[],"categories_nodes":[],"categories_segments":[],"categories_sizes":[],"default_left":[0,0,0,0,0,0,0,0,0,0,0,0,0,0,0,0,0,0,0,0,0,0,0,0,0,0,0,0,0,0,0,0,0,0,0,0,0,0,0,0,0,0,0,0,0,0,0,0,0,0,0,0,0,0,0,0,0,0,0,0,0,0,0,0,0,0,0,0,0,0,0,0,0,0,0,0,0,0,0,0,0,0,0,0,0,0,0,0,0,0,0,0,0,0,0],"id":15,"left_children":[1,3,5,7,9,11,13,15,17,19,21,23,25,27,29,31,33,35,37,-1,39,41,43,45,47,49,51,53,-1,-1,-1,55,57,59,61,63,65,67,69,71,-1,-1,-1,-1,73,75,77,79,81,83,85,87,89,91,93,-1,-1,-1,-1,-1,-1,-1,-1,-1,-1,-1,-1,-1,-1,-1,-1,-1,-1,-1,-1,-1,-1,-1,-1,-1,-1,-1,-1,-1,-1,-1,-1,-1,-1,-1,-1,-1,-1,-1,-1],"loss_changes":[6.6200914E4,3.848096E4,6.6914055E4,3.3819344E4,2.8278469E4,7.016824E4,6.940779E4,1.7176262E4,1.19725E4,2.3020729E4,1.4809984E4,2.2219712E5,1.08624875E5,4.6814082E4,6.127797E3,1.460706E4,1.619134E4,1.1918129E4,5.9000527E3,0E0,2.7354517E3,1.1832076E3,1.6182781E4,7.756334E4,2.0916136E5,1.4101466E5,1.8991616E5,5.2869625E4,0E0,0E0,0E0,7.200844E3,6.623092E3,9.5841797E2,1.6357234E3,9.360207E3,2.771268E3,1.5059253E3,6.644701E3,2.3562642E3,0E0,0E0,0E0,0E0,1.2848836E4,2.3419799E4,7.6775375E4,1.31859E5,2.2400518E4,9.4780945E4,9.706361E4,2.5748228E5,2.6508694E5,2.0357666E5,1.09146375E5,0E0,0E0,0E0,0E0,0E0,0E0,0E0,0E0,0E0,0E0,0E0,0E0,0E0,0E0,0E0,0E0,0E0,0E0,0E0,0E0,0E0,0E0,0E0,0E0,0E0,0E0,0E0,0E0,0E0,0E0,0E0,0E0,0E0,0E0,0E0,0E0,0E0,0E0,0E0,0E0],"parents":[2147483647,0,0,1,1,2,2,3,3,4,4,5,5,6,6,7,7,8,8,9,9,10,10,11,11,12,12,13,13,14,14,15,15,16,16,17,17,18,18,20,20,21,21,22,22,23,23,24,24,25,25,26,26,27,27,31,31,32,32,33,33,34,34,35,35,36,36,37,37,38,38,39,39,44,44,45,45,46,46,47,47,48,48,49,49,50,50,51,51,52,52,53,53,54,54],"right_children":[2,4,6,8,10,12,14,16,18,20,22,24,26,28,30,32,34,36,38,-1,40,42,44,46,48,50,52,54,-1,-1,-1,56,58,60,62,64,66,68,70,72,-1,-1,-1,-1,74,76,78,80,82,84,86,88,90,92,94,-1,-1,-1,-1,-1,-1,-1,-1,-1,-1,-1,-1,-1,-1,-1,-1,-1,-1,-1,-1,-1,-1,-1,-1,-1,-1,-1,-1,-1,-1,-1,-1,-1,-1,-1,-1,-1,-1,-1,-1],"split_conditions":[5E0,8.5E1,1.5E1,4E0,2.5E1,4E0,7E0,6.9E1,5.4E1,1E0,5E0,7.6E1,5.8E1,3.2E1,1.7E1,9E0,8.7E1,1.5E1,3E0,2.3921913E1,1.5E1,7E0,1.1E1,4.5E1,2E0,4.6E1,5E0,1.8E1,5.196178E1,4.853372E1,9.242432E0,3.3E1,3.7E1,5E0,7.5E1,5.7E1,3E0,1.5E1,4E0,1.1E1,2.4876893E0,8.740137E0,-2.2403505E0,-3.9733894E1,9E0,1E0,2.2E1,6E0,9E0,2E0,1E1,2E0,1.3E1,8E1,7.7E1,-1.5921721E1,-2.118391E0,1.4030457E0,1.9053215E1,3.1618837E1,7.605103E0,8.144403E0,9.548741E-1,-8.760328E0,-2.0732996E1,-2.844104E0,1.4271451E1,-3.3385623E0,-1.5646455E1,7.447696E0,-1.2108619E1,-2.0609756E1,-3.59704E0,-1.9599365E1,-7.0960695E-1,3.836621E0,-1.0223028E1,-1.9550407E1,1.0420571E1,1.786602E1,8.783541E1,-1.3438766E1,9.262417E0,2.769568E1,-6.0108128E0,-3.6094397E-2,1.1246878E1,-1.2687484E1,2.476478E1,6.005404E0,-2.4059723E1,-5.860538E-1,3.55764E1,1.446955E1,-1.1799247E1],"split_indices":[8,4,2,8,7,0,8,4,7,3,2,7,7,6,2,3,9,2,3,0,2,0,2,7,1,7,0,6,0,0,0,4,4,0,4,4,3,2,1,6,0,0,0,0,3,3,3,6,3,5,2,1,6,7,7,0,0,0,0,0,0,0,0,0,0,0,0,0,0,0,0,0,0,0,0,0,0,0,0,0,0,0,0,0,0,0,0,0,0,0,0,0,0,0,0],"split_type":[0,0,0,0,0,0,0,0,0,0,0,0,0,0,0,0,0,0,0,0,0,0,0,0,0,0,0,0,0,0,0,0,0,0,0,0,0,0,0,0,0,0,0,0,0,0,0,0,0,0,0,0,0,0,0,0,0,0,0,0,0,0,0,0,0,0,0,0,0,0,0,0,0,0,0,0,0,0,0,0,0,0,0,0,0,0,0,0,0,0,0,0,0,0,0],"sum_hessian":[1.018E3,1.26E2,8.92E2,9.3E1,3.3E1,7.68E2,1.24E2,5E1,4.3E1,6E0,2.7E1,1.48E2,6.2E2,1.2E2,4E0,3.6E1,1.4E1,3.1E1,1.2E1,2E0,4E0,2E0,2.5E1,1.24E2,2.4E1,4.46E2,1.74E2,1.19E2,1E0,3E0,1E0,2.9E1,7E0,3E0,1.1E1,2.9E1,2E0,4E0,8E0,3E0,1E0,1E0,1E0,3E0,2.2E1,4.6E1,7.8E1,1E1,1.4E1,1.32E2,3.14E2,6.5E1,1.09E2,6.2E1,5.7E1,3E0,2.6E1,4E0,3E0,2E0,1E0,5E0,6E0,1.9E1,1E1,1E0,1E0,3E0,1E0,7E0,1E0,1E0,2E0,1.8E1,4E0,3.1E1,1.5E1,7E1,8E0,6E0,4E0,8E0,6E0,7E0,1.25E2,1.01E2,2.13E2,2.9E1,3.6E1,4.3E1,6.6E1,4.2E1,2E1,2.3E1,3.4E1],"tree_param":{"num_deleted":"0","num_feature":"10","num_nodes":"95","size_leaf_vector":"1"}},{"base_weights":[1.2264376E0,-2.562621E0,1.4309053E1,2.066352E0,-2.724232E1,4.443082E1,1.5770208E0,-1.737832E0,3.304475E1,4.3781555E1,-3.2697083E1,5.6242428E1,-6.6533516E1,-7.860161E0,1.1034627E2,2.9971523E0,-2.4384525E1,1.3072632E1,1.5756183E2,-3.829316E1,4.2588165E1,6.911032E1,-5.473536E1,-1.01584656E2,-1.4848999E1,1.93784E1,-2.8917631E1,-1.0692573E1,1.2548211E2,-6.295705E0,5.328448E1,-3.0985779E1,5.7878593E1,2.2569708E1,-5.6267345E1,5.897217E0,3.08047E2,-4.554461E0,-5.8025806E1,2.582826E1,1.0318204E2,-1.1027222E1,-3.2801144E1,-9.025672E0,-3.461675E1,-1.6549683E1,1.5915125E1,1.2846936E0,2.398647E2,9.9570334E-1,-7.608397E1,7.096601E1,1.6817053E2,6.2045085E-1,-7.891266E0,-2.1859505E1,1.949138E1,1.6338175E1,-1.181175E1,-1.0903528E1,3.6504547E1,2.0546503E0,3.4316162E1,1.549993E1,-3.344233E1,1.3863199E1,1.0858602E2,-1.1161345E1,6.9161205E0,-7.702225E0,-2.5268362E1,3.003142E1,-3.8234632E0,8.789847E0,4.270574E1,-2.6684528E1,9.207056E0,-9.337182E0,8.66687E0,1.901084E1,1.0092152E2,-1.0628837E1,2.8690422E1,-2.6895906E1,2.6847265E1,3.1619257E1,5.6379E0,7.202341E1,4.8711185E0],"categories":[],"categories_nodes":[],"categories_segments":[],"categories_sizes":[],"default_left":[0,0,0,0,0,0,0,0,0,0,0,0,0,0,0,0,0,0,0,0,0,0,0,0,0,0,0,0,0,0,0,0,0,0,0,0,0,0,0,0,0,0,0,0,0,0,0,0,0,0,0,0,0,0,0,0,0,0,0,0,0,0,0,0,0,0,0,0,0,0,0,0,0,0,0,0,0,0,0,0,0,0,0,0,0,0,0,0,0],"id":16,"left_children":[1,3,5,7,9,11,13,15,17,-1,19,21,23,25,27,29,31,33,35,37,-1,39,41,43,45,47,49,-1,51,53,55,57,59,61,-1,63,65,67,69,71,73,75,-1,-1,-1,-1,-1,77,79,81,83,85,87,-1,-1,-1,-1,-1,-1,-1,-1,-1,-1,-1,-1,-1,-1,-1,-1,-1,-1,-1,-1,-1,-1,-1,-1,-1,-1,-1,-1,-1,-1,-1,-1,-1,-1,-1,-1],"loss_changes":[5.0549316E4,9.042144E4,8.775402E4,7.866173E4,1.2285429E5,9.286736E4,1.6715631E5,6.387596E4,1.7948173E5,0E0,1.2467865E5,9.232192E4,1.1172779E4,8.659665E4,3.3197906E4,2.3072073E5,5.7726508E4,1.261789E5,2.2641606E5,7.896042E4,0E0,7.991784E4,1.5500109E4,4.7648828E2,1.3876455E4,2.6299322E5,1.2000246E5,0E0,1.5992078E4,6.9838805E4,1.1825389E5,7.093928E4,5.2516734E4,8.871057E4,0E0,3.799153E4,5.384725E4,4.1421066E4,6.1413656E4,7.5767805E4,8.55435E4,1.8983197E4,0E0,0E0,0E0,0E0,0E0,5.63666E4,6.387672E4,1.8609208E5,8.2164E4,1.0594035E4,6.165275E4,0E0,0E0,0E0,0E0,0E0,0E0,0E0,0E0,0E0,0E0,0E0,0E0,0E0,0E0,0E0,0E0,0E0,0E0,0E0,0E0,0E0,0E0,0E0,0E0,0E0,0E0,0E0,0E0,0E0,0E0,0E0,0E0,0E0,0E0,0E0,0E0],"parents":[2147483647,0,0,1,1,2,2,3,3,4,4,5,5,6,6,7,7,8,8,10,10,11,11,12,12,13,13,14,14,15,15,16,16,17,17,18,18,19,19,21,21,22,22,23,23,24,24,25,25,26,26,28,28,29,29,30,30,31,31,32,32,33,33,35,35,36,36,37,37,38,38,39,39,40,40,41,41,47,47,48,48,49,49,50,50,51,51,52,52],"right_children":[2,4,6,8,10,12,14,16,18,-1,20,22,24,26,28,30,32,34,36,38,-1,40,42,44,46,48,50,-1,52,54,56,58,60,62,-1,64,66,68,70,72,74,76,-1,-1,-1,-1,-1,78,80,82,84,86,88,-1,-1,-1,-1,-1,-1,-1,-1,-1,-1,-1,-1,-1,-1,-1,-1,-1,-1,-1,-1,-1,-1,-1,-1,-1,-1,-1,-1,-1,-1,-1,-1,-1,-1,-1,-1],"split_conditions":[7.3E1,6.1E1,1.25E2,2.9E1,2.4E1,1.02E2,1.03E2,9.3E1,7.9E1,4.3781555E1,1.59E2,1.03E2,1.7E1,1.5E1,1.1E1,7.5E1,1.4E1,7.3E1,8E0,1.3E1,4.2588165E1,1.1E1,4E0,1.1E1,9E0,9.2E1,1.3E1,-1.0692573E1,5E0,7.4E1,5E0,6E0,2E1,3.1E1,-5.6267345E1,5E0,2.4E1,6.7E1,8.4E1,7.8E1,9.8E1,9E0,-3.2801144E1,-9.025672E0,-3.461675E1,-1.6549683E1,1.5915125E1,9.8E1,9.3E1,1.5E2,4E0,2E0,1.7E1,6.2045085E-1,-7.891266E0,-2.1859505E1,1.949138E1,1.6338175E1,-1.181175E1,-1.0903528E1,3.6504547E1,2.0546503E0,3.4316162E1,1.549993E1,-3.344233E1,1.3863199E1,1.0858602E2,-1.1161345E1,6.9161205E0,-7.702225E0,-2.5268362E1,3.003142E1,-3.8234632E0,8.789847E0,4.270574E1,-2.6684528E1,9.207056E0,-9.337182E0,8.66687E0,1.901084E1,1.0092152E2,-1.0628837E1,2.8690422E1,-2.6895906E1,2.6847265E1,3.1619257E1,5.6379E0,7.202341E1,4.8711185E0],"split_indices":[7,7,9,6,9,7,4,4,9,0,9,4,6,6,6,4,0,9,0,6,0,6,1,6,3,7,3,0,0,4,6,2,9,3,0,0,4,7,4,4,4,3,0,0,0,0,0,4,4,9,1,1,6,0,0,0,0,0,0,0,0,0,0,0,0,0,0,0,0,0,0,0,0,0,0,0,0,0,0,0,0,0,0,0,0,0,0,0,0],"split_type":[0,0,0,0,0,0,0,0,0,0,0,0,0,0,0,0,0,0,0,0,0,0,0,0,0,0,0,0,0,0,0,0,0,0,0,0,0,0,0,0,0,0,0,0,0,0,0,0,0,0,0,0,0,0,0,0,0,0,0,0,0,0,0,0,0,0,0,0,0,0,0,0,0,0,0,0,0,0,0,0,0,0,0,0,0,0,0,0,0],"sum_hessian":[1.018E3,7.9E2,2.28E2,6.66E2,1.24E2,6.7E1,1.61E2,5.94E2,7.2E1,3E0,1.21E2,6.1E1,6E0,1.49E2,1.2E1,4.92E2,1.02E2,6.3E1,9E0,1.18E2,3E0,5.5E1,6E0,3E0,3E0,6.5E1,8.4E1,1E0,1.1E1,4.16E2,7.6E1,9.5E1,7E0,6.1E1,2E0,5E0,4E0,4.4E1,7.4E1,2.5E1,3E1,4E0,2E0,1E0,2E0,2E0,1E0,6.1E1,4E0,5.2E1,3.2E1,6E0,5E0,2.94E2,1.22E2,6E0,7E1,8E0,8.7E1,3E0,4E0,5.3E1,8E0,4E0,1E0,1E0,3E0,2E1,2.4E1,3.4E1,4E1,8E0,1.7E1,1.1E1,1.9E1,1E0,3E0,2.8E1,3.3E1,2E0,2E0,3.8E1,1.4E1,3E1,2E0,3E0,3E0,3E0,2E0],"tree_param":{"num_deleted":"0","num_feature":"10","num_nodes":"89","size_leaf_vector":"1"}},{"base_weights":[1.2295899E0,3.3229355E1,5.7617266E-2,1.7206055E0,9.610346E1,-2.93313E0,1.3996919E1,-2.6773237E1,1.5800659E2,-9.313306E0,1.4997601E2,-1.860319E1,1.0980821E0,4.0080055E1,-2.3138885E0,5.5920853E1,-6.909187E1,6.8229127E0,5.865403E1,-9.10086E0,3.5264664E0,6.22242E1,1.6885591E2,1.8147978E1,-2.9284904E1,1.8921669E0,-1.01082016E2,1.8855017E1,2.193154E2,2.0503378E1,-4.1615826E1,4.2813805E1,-2.4696777E1,-9.1749016E1,3.7216225E1,4.1670275E0,-4.5581055E0,4.4218507E0,2.357904E1,6.456055E1,6.145904E1,-5.464027E0,5.4717323E1,-1.83878E1,-5.2225327E1,-6.3960648E0,9.506743E0,-1.5101848E1,-4.560782E1,5.825902E1,-1.8675457E1,8.673879E1,2.985376E1,4.8450504E1,-9.690741E0,-5.9872105E1,-2.3414549E1,-5.9436953E-1,-1.7333845E1,-6.9915166E0,-3.8155197E1,-1.7823762E0,-2.6877138E-1,2.8713428E1,3.3881837E-1,-9.2670555E0,8.21798E0,-2.39769E0,1.9493927E1,4.003956E1,-8.131201E0,-4.1536434E1,-1.2532258E1,-3.8082788E0,8.395092E0,7.44618E0,-2.863745E0,-2.3382448E1,2.1231377E1,2.8122072E1,-7.5976944E0,-1.2486768E1,2.5920961E1,-1.3453883E1,2.1755053E1,-6.8313293E0,3.9918995E1,-1.1121474E1,4.3116703E1],"categories":[],"categories_nodes":[],"categories_segments":[],"categories_sizes":[],"default_left":[0,0,0,0,0,0,0,0,0,0,0,0,0,0,0,0,0,0,0,0,0,0,0,0,0,0,0,0,0,0,0,0,0,0,0,0,0,0,0,0,0,0,0,0,0,0,0,0,0,0,0,0,0,0,0,0,0,0,0,0,0,0,0,0,0,0,0,0,0,0,0,0,0,0,0,0,0,0,0,0,0,0,0,0,0,0,0,0,0],"id":17,"left_children":[1,3,5,7,9,11,13,15,17,19,21,23,25,27,29,31,33,-1,-1,-1,35,37,39,41,43,45,47,49,51,53,55,-1,57,59,-1,-1,61,-1,-1,63,-1,65,67,69,71,73,75,-1,-1,77,79,-1,81,83,85,-1,87,-1,-1,-1,-1,-1,-1,-1,-1,-1,-1,-1,-1,-1,-1,-1,-1,-1,-1,-1,-1,-1,-1,-1,-1,-1,-1,-1,-1,-1,-1,-1,-1],"loss_changes":[3.8213484E4,7.115369E4,4.106296E4,1.15560055E5,6.954562E4,5.1250754E4,7.411878E4,8.0852695E4,1.5846656E4,1.4566252E3,2.7470312E3,6.5697336E4,5.260748E4,2.507514E5,9.770364E4,5.9500156E4,7.702389E4,0E0,0E0,0E0,3.9845438E2,1.1738652E3,9.306422E3,3.3111047E4,3.128764E4,4.057831E4,5.2722383E3,9.129792E4,8.395778E4,5.8694406E4,1.1032844E5,0E0,3.6429836E3,3.0990305E4,0E0,0E0,9.87331E0,0E0,0E0,5.819712E3,0E0,2.0896615E4,1.0172629E4,1.21416195E5,3.1165188E4,6.704653E4,9.7979266E4,0E0,0E0,5.6641188E4,2.6296781E4,0E0,1.5722159E4,8.4083305E4,6.651731E4,0E0,8.978397E4,0E0,0E0,0E0,0E0,0E0,0E0,0E0,0E0,0E0,0E0,0E0,0E0,0E0,0E0,0E0,0E0,0E0,0E0,0E0,0E0,0E0,0E0,0E0,0E0,0E0,0E0,0E0,0E0,0E0,0E0,0E0,0E0],"parents":[2147483647,0,0,1,1,2,2,3,3,4,4,5,5,6,6,7,7,8,8,9,9,10,10,11,11,12,12,13,13,14,14,15,15,16,16,20,20,21,21,22,22,23,23,24,24,25,25,26,26,27,27,28,28,29,29,30,30,32,32,33,33,36,36,39,39,41,41,42,42,43,43,44,44,45,45,46,46,49,49,50,50,52,52,53,53,54,54,56,56],"right_children":[2,4,6,8,10,12,14,16,18,20,22,24,26,28,30,32,34,-1,-1,-1,36,38,40,42,44,46,48,50,52,54,56,-1,58,60,-1,-1,62,-1,-1,64,-1,66,68,70,72,74,76,-1,-1,78,80,-1,82,84,86,-1,88,-1,-1,-1,-1,-1,-1,-1,-1,-1,-1,-1,-1,-1,-1,-1,-1,-1,-1,-1,-1,-1,-1,-1,-1,-1,-1,-1,-1,-1,-1,-1,-1],"split_conditions":[1.9E1,1.5E1,7.6E1,1.6E1,5E0,4E0,1.5E1,4.7E1,5E0,3.7E1,2E0,4.2E1,1.7E1,1.1E1,1.3E1,8E0,9.8E1,6.8229127E0,5.865403E1,-9.10086E0,1.1E1,8E0,1.6E1,1.11E2,9.3E1,9E0,1.8E1,8.1E1,1.3E1,5E0,7.7E1,4.2813805E1,1E0,3E0,3.7216225E1,4.1670275E0,1.3E1,4.4218507E0,2.357904E1,7.5E1,6.145904E1,3.5E1,2E1,3E0,1E0,1.16E2,8.9E1,-1.5101848E1,-4.560782E1,3E0,8.2E1,8.673879E1,7E0,9.3E1,9E0,-5.9872105E1,6E0,-5.9436953E-1,-1.7333845E1,-6.9915166E0,-3.8155197E1,-1.7823762E0,-2.6877138E-1,2.8713428E1,3.3881837E-1,-9.2670555E0,8.21798E0,-2.39769E0,1.9493927E1,4.003956E1,-8.131201E0,-4.1536434E1,-1.2532258E1,-3.8082788E0,8.395092E0,7.44618E0,-2.863745E0,-2.3382448E1,2.1231377E1,2.8122072E1,-7.5976944E0,-1.2486768E1,2.5920961E1,-1.3453883E1,2.1755053E1,-6.8313293E0,3.9918995E1,-1.1121474E1,4.3116703E1],"split_indices":[9,9,7,0,2,0,6,7,6,4,5,7,0,6,3,0,4,0,0,0,0,0,6,9,4,5,0,7,6,0,7,0,1,0,0,0,0,0,0,4,0,4,7,5,5,9,9,0,0,8,9,0,3,4,3,0,8,0,0,0,0,0,0,0,0,0,0,0,0,0,0,0,0,0,0,0,0,0,0,0,0,0,0,0,0,0,0,0,0],"split_type":[0,0,0,0,0,0,0,0,0,0,0,0,0,0,0,0,0,0,0,0,0,0,0,0,0,0,0,0,0,0,0,0,0,0,0,0,0,0,0,0,0,0,0,0,0,0,0,0,0,0,0,0,0,0,0,0,0,0,0,0,0,0,0,0,0,0,0,0,0,0,0,0,0,0,0,0,0,0,0,0,0,0,0,0,0,0,0,0,0],"sum_hessian":[1.018E3,3.5E1,9.83E2,2.4E1,1.1E1,8.1E2,1.73E2,2.1E1,3E0,4E0,7E0,1.65E2,6.45E2,6.6E1,1.07E2,7E0,1.4E1,1E0,2E0,1E0,3E0,2E0,5E0,3.7E1,1.28E2,6.41E2,4E0,6E1,6E0,6.8E1,3.9E1,3E0,4E0,1.3E1,1E0,1E0,2E0,1E0,1E0,2E0,3E0,2.3E1,1.4E1,8.8E1,4E1,3.07E2,3.34E2,3E0,1E0,2.9E1,3.1E1,4E0,2E0,3.5E1,3.3E1,3E0,3.6E1,3E0,1E0,5E0,8E0,1E0,1E0,1E0,1E0,1.3E1,1E1,2E0,1.2E1,4E0,8.4E1,3E0,3.7E1,2.6E2,4.7E1,1.85E2,1.49E2,2E0,2.7E1,1E0,3E1,1E0,1E0,7E0,2.8E1,3.1E1,2E0,3.4E1,2E0],"tree_param":{"num_deleted":"0","num_feature":"10","num_nodes":"89","size_leaf_vector":"1"}},{"base_weights":[1.1240793E0,-1.1191449E1,3.9968398E0,1.0513341E1,-3.2339085E1,-2.3369384E0,2.2036882E1,1.6489067E0,1.07816E2,-5.5418045E1,1.09796E0,6.2833464E-1,-3.5025402E1,-3.8788626E0,4.0373234E1,9.934556E0,-5.3071434E1,-1.5904212E1,1.3836516E2,4.359914E1,-7.449465E1,-2.5368036E1,6.0053032E1,3.3501446E1,-4.570552E0,1.0321822E2,-5.5751625E1,1.06947136E2,-2.397867E1,4.691364E1,-7.75156E1,9.399239E1,-6.322216E0,5.079596E1,2.184575E1,-1.7635365E1,8.736137E1,-9.566963E1,7.3525004E0,5.1223593E0,-7.572708E1,-1.1736138E1,1.7726292E2,1.1235231E-1,2.1434967E2,-7.0182014E1,-1.1670052E0,3.7298035E1,-3.514966E0,1.6831636E0,-1.01766785E2,3.624549E1,1.5544269E2,-4.6724613E1,3.1456358E1,6.890395E1,1.24926605E1,-1.1258458E2,6.77124E0,-1.5133239E1,6.2587593E1,-5.0948567E0,3.466562E1,2.8977814E-1,-1.380608E1,-1.075752E1,3.57531E1,-3.418253E1,1.5410772E1,1.623293E1,-2.6400047E1,6.9896317E0,-2.9875427E1,-2.9945236E1,6.5359197E0,-1.3445197E1,3.682202E0,8.785371E0,7.98461E1,2.4188166E1,-3.2420464E0,1.2709679E2,2.9252407E1,-2.916471E0,-3.1743055E1,7.616047E0,-2.0800498E0,8.680424E0,-3.6410927E1,1.9367066E-1,-4.2488903E1,1.7626734E1,-1.4822434E1,5.254783E1,1.9258495E1,-2.199998E1,1.34648485E1,-3.3062347E1,1.2871527E1,1.0032104E2,1.8171593E1,-5.1122353E1,8.541861E0,-4.8572025E0,-3.979062E1,5.430945E0,-2.3838868E0],"categories":[],"categories_nodes":[],"categories_segments":[],"categories_sizes":[],"default_left":[0,0,0,0,0,0,0,0,0,0,0,0,0,0,0,0,0,0,0,0,0,0,0,0,0,0,0,0,0,0,0,0,0,0,0,0,0,0,0,0,0,0,0,0,0,0,0,0,0,0,0,0,0,0,0,0,0,0,0,0,0,0,0,0,0,0,0,0,0,0,0,0,0,0,0,0,0,0,0,0,0,0,0,0,0,0,0,0,0,0,0,0,0,0,0,0,0,0,0,0,0,0,0,0,0,0,0],"id":18,"left_children":[1,3,5,7,9,11,13,15,17,19,21,23,25,27,29,31,-1,-1,33,35,37,39,41,43,45,47,49,51,53,55,57,59,61,-1,-1,63,65,67,69,71,73,75,77,79,81,83,85,-1,-1,87,89,91,93,95,97,99,101,103,105,-1,-1,-1,-1,-1,-1,-1,-1,-1,-1,-1,-1,-1,-1,-1,-1,-1,-1,-1,-1,-1,-1,-1,-1,-1,-1,-1,-1,-1,-1,-1,-1,-1,-1,-1,-1,-1,-1,-1,-1,-1,-1,-1,-1,-1,-1,-1,-1],"loss_changes":[3.6096504E4,8.892795E4,9.454587E4,8.262539E4,7.5686695E4,5.9440234E4,1.0232466E5,1.33427E5,4.6641055E4,1.1280478E5,6.5495918E4,9.6371836E4,1.5188328E5,2.0304675E5,1.0078766E5,1.1811403E5,0E0,0E0,1.8729688E3,2.8338232E4,8.562591E4,4.4916445E4,1.1146758E5,4.6492944E5,1.0867089E5,1.8439438E4,1.1910047E5,4.2367938E4,9.856078E4,8.997059E4,2.1453316E4,2.4232444E5,9.680822E4,0E0,0E0,2.6844312E3,2.7795387E4,1.1063494E5,5.3804387E4,3.8481E4,2.8015152E4,7.698644E3,5.797533E4,5.8895605E4,2.521585E5,5.066964E4,7.122485E4,0E0,0E0,7.393292E4,1.02152766E5,1.6399621E4,3.1484844E3,1.3735672E5,4.2031594E4,1.4123056E5,1.4514581E5,7.516414E3,6.4418604E2,0E0,0E0,0E0,0E0,0E0,0E0,0E0,0E0,0E0,0E0,0E0,0E0,0E0,0E0,0E0,0E0,0E0,0E0,0E0,0E0,0E0,0E0,0E0,0E0,0E0,0E0,0E0,0E0,0E0,0E0,0E0,0E0,0E0,0E0,0E0,0E0,0E0,0E0,0E0,0E0,0E0,0E0,0E0,0E0,0E0,0E0,0E0,0E0],"parents":[2147483647,0,0,1,1,2,2,3,3,4,4,5,5,6,6,7,7,8,8,9,9,10,10,11,11,12,12,13,13,14,14,15,15,18,18,19,19,20,20,21,21,22,22,23,23,24,24,25,25,26,26,27,27,28,28,29,29,30,30,31,31,32,32,35,35,36,36,37,37,38,38,39,39,40,40,41,41,42,42,43,43,44,44,45,45,46,46,49,49,50,50,51,51,52,52,53,53,54,54,55,55,56,56,57,57,58,58],"right_children":[2,4,6,8,10,12,14,16,18,20,22,24,26,28,30,32,-1,-1,34,36,38,40,42,44,46,48,50,52,54,56,58,60,62,-1,-1,64,66,68,70,72,74,76,78,80,82,84,86,-1,-1,88,90,92,94,96,98,100,102,104,106,-1,-1,-1,-1,-1,-1,-1,-1,-1,-1,-1,-1,-1,-1,-1,-1,-1,-1,-1,-1,-1,-1,-1,-1,-1,-1,-1,-1,-1,-1,-1,-1,-1,-1,-1,-1,-1,-1,-1,-1,-1,-1,-1,-1,-1,-1,-1,-1],"split_conditions":[8E0,1.3E1,9E0,5.9E1,2.2E1,4E0,7E0,5.8E1,1E0,6E0,2.7E1,7.4E1,7E0,1.3E1,3.1E1,1E0,-5.3071434E1,-1.5904212E1,1E2,7.5E1,5.4E1,8.3E1,3.3E1,1.2E1,7.6E1,1.1E1,1.3E1,8E0,1.67E2,9.4E1,8E0,5E0,1E1,5.079596E1,2.184575E1,1E0,2E0,1.1E1,6.2E1,5.2E1,3.4E1,2E0,4E0,1E1,7.2E1,4.4E1,6E0,3.7298035E1,-3.514966E0,6E0,9E1,5E0,8E1,2.1E1,1.4E1,1E1,1E1,3E0,9E0,-1.5133239E1,6.2587593E1,-5.0948567E0,3.466562E1,2.8977814E-1,-1.380608E1,-1.075752E1,3.57531E1,-3.418253E1,1.5410772E1,1.623293E1,-2.6400047E1,6.9896317E0,-2.9875427E1,-2.9945236E1,6.5359197E0,-1.3445197E1,3.682202E0,8.785371E0,7.98461E1,2.4188166E1,-3.2420464E0,1.2709679E2,2.9252407E1,-2.916471E0,-3.1743055E1,7.616047E0,-2.0800498E0,8.680424E0,-3.6410927E1,1.9367066E-1,-4.2488903E1,1.7626734E1,-1.4822434E1,5.254783E1,1.9258495E1,-2.199998E1,1.34648485E1,-3.3062347E1,1.2871527E1,1.0032104E2,1.8171593E1,-5.1122353E1,8.541861E0,-4.8572025E0,-3.979062E1,5.430945E0,-2.3838868E0],"split_indices":[2,3,3,9,3,1,5,9,0,2,6,9,3,3,3,1,0,0,4,4,7,4,9,2,9,0,2,0,9,4,0,0,3,0,0,1,5,0,7,9,3,5,1,6,4,7,5,0,0,8,4,0,7,6,3,2,2,0,2,0,0,0,0,0,0,0,0,0,0,0,0,0,0,0,0,0,0,0,0,0,0,0,0,0,0,0,0,0,0,0,0,0,0,0,0,0,0,0,0,0,0,0,0,0,0,0,0],"split_type":[0,0,0,0,0,0,0,0,0,0,0,0,0,0,0,0,0,0,0,0,0,0,0,0,0,0,0,0,0,0,0,0,0,0,0,0,0,0,0,0,0,0,0,0,0,0,0,0,0,0,0,0,0,0,0,0,0,0,0,0,0,0,0,0,0,0,0,0,0,0,0,0,0,0,0,0,0,0,0,0,0,0,0,0,0,0,0,0,0,0,0,0,0,0,0,0,0,0,0,0,0,0,0,0,0,0,0],"sum_hessian":[1.018E3,1.92E2,8.26E2,9.5E1,9.7E1,6.12E2,2.14E2,8.8E1,7E0,5.7E1,4E1,5.62E2,5E1,8.9E1,1.25E2,8.5E1,3E0,1E0,6E0,9E0,4.8E1,2.8E1,1.2E1,7.6E1,4.86E2,6E0,4.4E1,1.3E1,7.6E1,1.19E2,6E0,1.3E1,7.2E1,3E0,3E0,4E0,5E0,3.8E1,1E1,1.8E1,1E1,8E0,4E0,6.5E1,1.1E1,2.3E1,4.63E2,5E0,1E0,2E1,2.4E1,6E0,7E0,5.4E1,2.2E1,7.2E1,4.7E1,4E0,2E0,6E0,7E0,6.7E1,5E0,3E0,1E0,1E0,4E0,3.4E1,4E0,7E0,3E0,1.6E1,2E0,8E0,2E0,3E0,5E0,2E0,2E0,7E0,5.8E1,3E0,8E0,9E0,1.4E1,8.2E1,3.81E2,1.7E1,3E0,7E0,1.7E1,5E0,1E0,5E0,2E0,4.2E1,1.2E1,1E0,2.1E1,1E0,7.1E1,3E0,4.4E1,1E0,3E0,1E0,1E0],"tree_param":{"num_deleted":"0","num_feature":"10","num_nodes":"107","size_leaf_vector":"1"}},{"base_weights":[1.0694244E0,3.0337444E1,-2.4436393E-3,1.7862835E1,1.2566861E2,-1.438312E1,2.4598868E0,-1.4256949E1,7.526054E1,6.563709E0,4.589164E1,-4.280635E0,-7.68045E1,9.176569E1,1.2747799E0,2.8093102E1,-5.188975E1,5.2734375E-2,1.1285785E2,6.108775E0,-5.6023846E1,-1.2819989E2,2.5653756E-1,1.7790587E2,-1.03456085E2,-7.363697E-1,4.993035E1,-6.154602E0,3.6441555E1,-7.5002464E1,3.0352516E1,-6.971503E0,1.1685089E1,5.4745667E1,1.3677603E2,5.2622787E1,-8.322819E0,-3.1863758E1,-5.7108936E1,-1.5468428E2,2.4469263E1,-1.8052698E1,2.6119402E1,2.0437817E1,3.3026447E2,-5.5440544E1,2.1087158E1,6.532954E0,-7.5804505E0,9.012535E1,-2.7921347E1,1.8464104E0,-1.5694355E1,-2.5348847E0,-2.9671076E1,5.713025E0,-1.558484E0,2.1680677E1,7.444483E0,8.8859625E0,4.684803E1,-1.840931E1,3.010808E1,1.6865448E1,-5.780427E0,-2.0821306E1,-2.75956E0,-1.964678E1,-5.888918E1,2.7804834E1,-5.712752E0,1.2314918E1,-2.0960083E0,1.3626424E2,-6.237653E0,1.1612903E1,2.9668802E-1,3.724079E-1,-9.727112E0,1.4165908E1,4.106705E1,1.1053619E0,-1.5307003E1],"categories":[],"categories_nodes":[],"categories_segments":[],"categories_sizes":[],"default_left":[0,0,0,0,0,0,0,0,0,0,0,0,0,0,0,0,0,0,0,0,0,0,0,0,0,0,0,0,0,0,0,0,0,0,0,0,0,0,0,0,0,0,0,0,0,0,0,0,0,0,0,0,0,0,0,0,0,0,0,0,0,0,0,0,0,0,0,0,0,0,0,0,0,0,0,0,0,0,0,0,0,0,0],"id":19,"left_children":[1,3,5,7,9,11,13,15,17,-1,-1,19,21,23,25,27,29,31,33,35,37,39,41,43,45,47,49,51,-1,53,-1,-1,55,57,59,61,63,65,-1,67,-1,-1,69,71,73,-1,-1,75,77,79,81,-1,-1,-1,-1,-1,-1,-1,-1,-1,-1,-1,-1,-1,-1,-1,-1,-1,-1,-1,-1,-1,-1,-1,-1,-1,-1,-1,-1,-1,-1,-1,-1],"loss_changes":[3.196759E4,4.056709E4,3.4878793E4,6.191185E4,7.9883984E3,9.047921E4,8.889187E4,3.6520266E4,3.3925383E4,0E0,0E0,6.7539914E4,7.924455E4,2.0338625E5,8.135313E4,3.592569E4,5.004129E4,1.6261924E3,3.6316016E3,7.092146E4,6.2092938E4,7.928241E4,1.56383E4,1.8518302E5,6.9523984E4,3.9801242E4,1.0578164E5,5.4357476E3,0E0,1.6661867E4,0E0,0E0,5.9576483E2,3.0458594E2,5.760164E3,1.42195E5,5.8303113E4,1.5528033E4,0E0,2.7973E4,0E0,0E0,2.2807816E4,3.1131592E3,1.834974E5,0E0,0E0,6.9176086E4,9.0335195E4,3.767853E4,8.949906E3,0E0,0E0,0E0,0E0,0E0,0E0,0E0,0E0,0E0,0E0,0E0,0E0,0E0,0E0,0E0,0E0,0E0,0E0,0E0,0E0,0E0,0E0,0E0,0E0,0E0,0E0,0E0,0E0,0E0,0E0,0E0,0E0],"parents":[2147483647,0,0,1,1,2,2,3,3,4,4,5,5,6,6,7,7,8,8,11,11,12,12,13,13,14,14,15,15,16,16,17,17,18,18,19,19,20,20,21,21,22,22,23,23,24,24,25,25,26,26,27,27,29,29,32,32,33,33,34,34,35,35,36,36,37,37,39,39,42,42,43,43,44,44,47,47,48,48,49,49,50,50],"right_children":[2,4,6,8,10,12,14,16,18,-1,-1,20,22,24,26,28,30,32,34,36,38,40,42,44,46,48,50,52,-1,54,-1,-1,56,58,60,62,64,66,-1,68,-1,-1,70,72,74,-1,-1,76,78,80,82,-1,-1,-1,-1,-1,-1,-1,-1,-1,-1,-1,-1,-1,-1,-1,-1,-1,-1,-1,-1,-1,-1,-1,-1,-1,-1,-1,-1,-1,-1,-1,-1],"split_conditions":[1.9E1,1.6E1,4.4E1,1.5E1,5E0,4E1,4.6E1,7E0,5E0,6.563709E0,4.589164E1,1.4E1,4E0,9E1,1.3E1,6E0,9.8E1,3.7E1,1.6E1,8E0,1.4E1,5.4E1,1E1,6.9E1,8E0,5E0,1.7E1,7.5E1,3.6441555E1,3E0,3.0352516E1,-6.971503E0,2.5E1,7.5E1,2E0,2.5E1,2E0,6.9E1,-5.7108936E1,7E1,2.4469263E1,-1.8052698E1,1.4E1,8E0,4E0,-5.5440544E1,2.1087158E1,7E0,9.6E1,8.4E1,9.9E1,1.8464104E0,-1.5694355E1,-2.5348847E0,-2.9671076E1,5.713025E0,-1.558484E0,2.1680677E1,7.444483E0,8.8859625E0,4.684803E1,-1.840931E1,3.010808E1,1.6865448E1,-5.780427E0,-2.0821306E1,-2.75956E0,-1.964678E1,-5.888918E1,2.7804834E1,-5.712752E0,1.2314918E1,-2.0960083E0,1.3626424E2,-6.237653E0,1.1612903E1,2.9668802E-1,3.724079E-1,-9.727112E0,1.4165908E1,4.106705E1,1.1053619E0,-1.5307003E1],"split_indices":[9,0,9,9,6,9,9,9,2,0,0,0,1,4,0,9,4,4,6,3,3,7,3,4,0,0,6,4,0,0,0,0,6,4,5,9,5,4,0,4,0,0,3,0,1,0,0,6,4,4,9,0,0,0,0,0,0,0,0,0,0,0,0,0,0,0,0,0,0,0,0,0,0,0,0,0,0,0,0,0,0,0,0],"split_type":[0,0,0,0,0,0,0,0,0,0,0,0,0,0,0,0,0,0,0,0,0,0,0,0,0,0,0,0,0,0,0,0,0,0,0,0,0,0,0,0,0,0,0,0,0,0,0,0,0,0,0,0,0,0,0,0,0,0,0,0,0,0,0,0,0,0,0,0,0,0,0,0,0,0,0,0,0,0,0,0,0,0,0],"sum_hessian":[1.018E3,3.5E1,9.83E2,3.2E1,3E0,1.43E2,8.4E2,2.1E1,1.1E1,1E0,2E0,1.24E2,1.9E1,1E1,8.3E2,1E1,1.1E1,4E0,7E0,1.04E2,2E1,1.1E1,8E0,7E0,3E0,7.98E2,3.2E1,8E0,2E0,1E1,1E0,1E0,3E0,3E0,4E0,2.4E1,8E1,1.8E1,2E0,1E1,1E0,2E0,6E0,4E0,3E0,2E0,1E0,3.87E2,4.11E2,2.1E1,1.1E1,7E0,1E0,3E0,7E0,2E0,1E0,1E0,2E0,1E0,3E0,7E0,1.7E1,1.1E1,6.9E1,6E0,1.2E1,4E0,6E0,2E0,4E0,2E0,2E0,2E0,1E0,5.6E1,3.31E2,3.04E2,1.07E2,1.2E1,9E0,5E0,6E0],"tree_param":{"num_deleted":"0","num_feature":"10","num_nodes":"83","size_leaf_vector":"1"}},{"base_weights":[9.4171065E-1,-3.1685202E1,1.6599976E0,-5.0253258E1,6.443437E1,2.554835E1,7.652513E-1,-9.593939E1,-8.305221E0,-4.444071E0,2.8736464E1,1.5618578E1,1.0108188E2,-6.3180323E0,4.729735E0,4.499785E0,-1.1168163E2,2.4604614E1,-2.3721985E1,-9.037146E0,5.951919E1,5.5791507E0,3.6713318E1,-1.7725629E0,-6.4610954E1,5.076876E1,4.9911898E-1,-1.2478029E2,-2.9986544E0,1.5296168E1,-8.181482E0,-3.7939175E1,1.1369751E1,3.8899414E1,-2.9444569E1,-5.2647704E-1,8.9607834E1,-6.928314E0,4.6848465E1,-3.273452E1,-1.6009724E2,1.0805866E1,1.0924705E2,1.4899616E0,-7.898114E1,-4.0100063E1,-1.0719123E1,-4.49263E0,-1.5425437E1,-1.622206E1,2.607099E1,-1.2862213E1,2.5799635E1,-5.9257784E0,2.7654603E0,1.36809635E1,3.2066994E1,-8.1794375E-1,-1.1619791E1,3.6869175E1,-1.2739013E1,-1.5277671E0,-1.5221435E1,-5.7582736E0,-5.53317E1,-8.403575E0,2.3350948E1,4.003643E0,4.4015392E1,1.538837E-1,4.122336E1,-1.4375624E1,-3.980333E1],"categories":[],"categories_nodes":[],"categories_segments":[],"categories_sizes":[],"default_left":[0,0,0,0,0,0,0,0,0,0,0,0,0,0,0,0,0,0,0,0,0,0,0,0,0,0,0,0,0,0,0,0,0,0,0,0,0,0,0,0,0,0,0,0,0,0,0,0,0,0,0,0,0,0,0,0,0,0,0,0,0,0,0,0,0,0,0,0,0,0,0,0,0],"id":20,"left_children":[1,3,5,7,9,11,13,15,17,-1,-1,19,21,23,25,-1,27,29,31,33,35,-1,-1,37,39,41,43,45,-1,-1,-1,47,-1,49,51,53,55,57,59,61,63,65,67,69,71,-1,-1,-1,-1,-1,-1,-1,-1,-1,-1,-1,-1,-1,-1,-1,-1,-1,-1,-1,-1,-1,-1,-1,-1,-1,-1,-1,-1],"loss_changes":[2.3933355E4,4.2502617E4,2.1311715E4,3.561563E4,1.1357873E4,2.542235E4,2.7072426E4,1.7392953E4,6.1646646E3,0E0,0E0,3.625713E4,4.750449E3,9.156464E4,1.2034465E5,0E0,9.408375E3,6.8650244E3,8.4465E3,2.266713E4,2.1727488E4,0E0,0E0,8.104287E4,7.085334E4,1.2034147E5,4.4770305E4,7.6346094E2,0E0,0E0,0E0,1.3966816E3,0E0,3.59406E4,2.8492613E4,1.118845E3,1.2094258E3,3.8916254E4,2.1577236E5,9.694707E3,1.7038797E4,8.544372E4,7.350595E4,7.442875E4,5.317867E3,0E0,0E0,0E0,0E0,0E0,0E0,0E0,0E0,0E0,0E0,0E0,0E0,0E0,0E0,0E0,0E0,0E0,0E0,0E0,0E0,0E0,0E0,0E0,0E0,0E0,0E0,0E0,0E0],"parents":[2147483647,0,0,1,1,2,2,3,3,4,4,5,5,6,6,7,7,8,8,11,11,12,12,13,13,14,14,16,16,17,17,18,18,19,19,20,20,23,23,24,24,25,25,26,26,27,27,31,31,33,33,34,34,35,35,36,36,37,37,38,38,39,39,40,40,41,41,42,42,43,43,44,44],"right_children":[2,4,6,8,10,12,14,16,18,-1,-1,20,22,24,26,-1,28,30,32,34,36,-1,-1,38,40,42,44,46,-1,-1,-1,48,-1,50,52,54,56,58,60,62,64,66,68,70,72,-1,-1,-1,-1,-1,-1,-1,-1,-1,-1,-1,-1,-1,-1,-1,-1,-1,-1,-1,-1,-1,-1,-1,-1,-1,-1,-1,-1],"split_conditions":[7E0,2.3E1,1.9E1,1E2,1E0,1.6E1,7.7E1,1.1E1,1.6E1,-4.444071E0,2.8736464E1,1.5E1,5E0,7.4E1,8.5E1,4.499785E0,8E0,8E0,4E0,1.2E1,5E0,5.5791507E0,3.6713318E1,6.9E1,7E0,8.2E1,3.1E1,9E1,-2.9986544E0,1.5296168E1,-8.181482E0,5E0,1.1369751E1,7E0,9.8E1,3.7E1,1.6E1,1E2,4E0,4.4E1,5E0,9E0,4.8E1,2.6E1,1.1E1,-4.0100063E1,-1.0719123E1,-4.49263E0,-1.5425437E1,-1.622206E1,2.607099E1,-1.2862213E1,2.5799635E1,-5.9257784E0,2.7654603E0,1.36809635E1,3.2066994E1,-8.1794375E-1,-1.1619791E1,3.6869175E1,-1.2739013E1,-1.5277671E0,-1.5221435E1,-5.7582736E0,-5.53317E1,-8.403575E0,2.3350948E1,4.003643E0,4.4015392E1,1.538837E-1,4.122336E1,-1.4375624E1,-3.980333E1],"split_indices":[7,6,9,9,3,0,9,4,4,0,0,9,6,9,9,0,0,0,1,3,2,0,0,9,5,9,3,4,0,0,0,0,0,5,4,4,6,4,1,7,8,5,7,3,6,0,0,0,0,0,0,0,0,0,0,0,0,0,0,0,0,0,0,0,0,0,0,0,0,0,0,0,0],"split_type":[0,0,0,0,0,0,0,0,0,0,0,0,0,0,0,0,0,0,0,0,0,0,0,0,0,0,0,0,0,0,0,0,0,0,0,0,0,0,0,0,0,0,0,0,0,0,0,0,0,0,0,0,0,0,0,0,0,0,0,0,0,0,0,0,0,0,0,0,0,0,0,0,0],"sum_hessian":[1.018E3,2.1E1,9.97E2,1.8E1,3E0,3.5E1,9.62E2,8E0,1E1,1E0,2E0,3.2E1,3E0,3.45E2,6.17E2,1E0,7E0,3E0,7E0,2.1E1,1.1E1,1E0,2E0,3.21E2,2.4E1,5.1E1,5.66E2,6E0,1E0,2E0,1E0,6E0,1E0,6E0,1.5E1,4E0,7E0,2.91E2,3E1,1.9E1,5E0,3.1E1,2E1,5.6E2,6E0,5E0,1E0,3E0,3E0,2E0,4E0,1.4E1,1E0,1E0,3E0,3E0,4E0,2.58E2,3.3E1,1.6E1,1.4E1,8E0,1.1E1,1E0,4E0,2E1,1.1E1,6E0,1.4E1,5.57E2,3E0,5E0,1E0],"tree_param":{"num_deleted":"0","num_feature":"10","num_nodes":"73","size_leaf_vector":"1"}},{"base_weights":[7.2321147E-1,-1.0284793E0,1.3731862E1,-3.761826E0,9.469574E0,-1.2121666E1,4.021831E1,6.2998843E0,-1.3029043E1,1.0023898E2,4.82691E0,4.7097173E0,-8.2644905E1,-2.4317553E1,5.061455E1,1.47331705E1,-1.0769903E1,-2.539735E0,-2.9808846E1,8.7354935E1,3.9973083E1,1.673133E1,-1.3778932E1,-3.2649696E1,2.9865782E1,-1.171016E2,1.5543884E1,2.6016785E1,-2.0936514E1,2.5426794E1,8.964362E1,-3.0018084E0,3.9967106E1,-1.7068115E1,7.4814926E1,-1.4269658E1,4.3435703E1,-2.1509151E1,-1.3804387E2,-2.7132166E1,7.152368E1,-7.034613E0,3.5547726E1,-2.0904709E1,3.2706776E1,2.3698557E1,-7.6885765E1,-1.12872765E2,4.3601982E1,-1.2928882E2,-2.9405823E0,1.4007331E1,-3.1206667E0,1.7133766E1,3.9647064E0,-3.6587334E1,4.0562798E1,7.1303344E0,1.5650629E2,5.1989145E0,-8.948968E0,-2.0738719E0,2.4689215E1,-3.7170043E0,-2.8125349E1,5.730555E1,-9.933274E0,1.3053435E0,-7.8837075E0,1.972999E1,1.1413157E0,-9.694133E0,6.751792E0,-2.082854E1,-5.783208E1,-1.9759187E0,3.9525852E1,3.9875588E0,-1.4936614E1,-1.5585364E1,1.3286349E1,-1.3837076E1,4.1193542E0,2.4611075E0,2.4472853E1,-5.5143967E0,-3.9697998E1,-4.830372E1,-2.489026E0,1.3425177E0,3.2166313E1,-4.6531876E1,-1.036731E1,-1.647757E0,2.6843872E0,4.0828857E0,-1.4166529E1,3.5802417E0,3.6196228E1,-1.6912924E1,3.494537E1,-1.7303505E1,5.5107777E1],"categories":[],"categories_nodes":[],"categories_segments":[],"categories_sizes":[],"default_left":[0,0,0,0,0,0,0,0,0,0,0,0,0,0,0,0,0,0,0,0,0,0,0,0,0,0,0,0,0,0,0,0,0,0,0,0,0,0,0,0,0,0,0,0,0,0,0,0,0,0,0,0,0,0,0,0,0,0,0,0,0,0,0,0,0,0,0,0,0,0,0,0,0,0,0,0,0,0,0,0,0,0,0,0,0,0,0,0,0,0,0,0,0,0,0,0,0,0,0,0,0,0,0],"id":21,"left_children":[1,3,5,7,9,11,13,15,17,19,21,23,25,27,29,31,33,35,37,-1,39,41,43,45,47,49,51,53,-1,55,57,59,61,63,65,67,69,71,73,-1,75,77,79,81,-1,83,85,87,89,91,-1,-1,-1,-1,93,95,97,99,101,-1,-1,-1,-1,-1,-1,-1,-1,-1,-1,-1,-1,-1,-1,-1,-1,-1,-1,-1,-1,-1,-1,-1,-1,-1,-1,-1,-1,-1,-1,-1,-1,-1,-1,-1,-1,-1,-1,-1,-1,-1,-1,-1,-1],"loss_changes":[2.3234213E4,2.5832266E4,8.334445E4,6.665833E4,7.789877E4,7.398345E4,4.148664E4,4.953504E4,6.5399457E4,9.19273E4,3.965608E4,4.890572E4,4.241936E4,2.2414365E4,4.88395E4,1.0305033E5,6.272653E4,1.24656125E5,1.2549021E5,0E0,3.9385664E4,4.89937E4,6.353303E4,5.4167215E4,6.570273E4,1.0501867E4,3.718287E3,3.2021968E3,0E0,3.2459404E4,1.092252E5,7.469894E4,1.8909105E5,3.7222645E4,1.06655734E5,4.1261164E4,4.1345008E4,6.44532E4,2.4169062E4,0E0,3.3799305E4,4.3244746E4,4.8950555E4,5.9156367E4,0E0,8.298833E3,3.6490125E4,1.3766871E4,7.170749E4,1.4205594E4,0E0,0E0,0E0,0E0,2.3765787E2,4.379381E3,6.046857E4,7.601429E4,7.464684E4,0E0,0E0,0E0,0E0,0E0,0E0,0E0,0E0,0E0,0E0,0E0,0E0,0E0,0E0,0E0,0E0,0E0,0E0,0E0,0E0,0E0,0E0,0E0,0E0,0E0,0E0,0E0,0E0,0E0,0E0,0E0,0E0,0E0,0E0,0E0,0E0,0E0,0E0,0E0,0E0,0E0,0E0,0E0,0E0],"parents":[2147483647,0,0,1,1,2,2,3,3,4,4,5,5,6,6,7,7,8,8,9,9,10,10,11,11,12,12,13,13,14,14,15,15,16,16,17,17,18,18,20,20,21,21,22,22,23,23,24,24,25,25,26,26,27,27,29,29,30,30,31,31,32,32,33,33,34,34,35,35,36,36,37,37,38,38,40,40,41,41,42,42,43,43,45,45,46,46,47,47,48,48,49,49,54,54,55,55,56,56,57,57,58,58],"right_children":[2,4,6,8,10,12,14,16,18,20,22,24,26,28,30,32,34,36,38,-1,40,42,44,46,48,50,52,54,-1,56,58,60,62,64,66,68,70,72,74,-1,76,78,80,82,-1,84,86,88,90,92,-1,-1,-1,-1,94,96,98,100,102,-1,-1,-1,-1,-1,-1,-1,-1,-1,-1,-1,-1,-1,-1,-1,-1,-1,-1,-1,-1,-1,-1,-1,-1,-1,-1,-1,-1,-1,-1,-1,-1,-1,-1,-1,-1,-1,-1,-1,-1,-1,-1,-1,-1],"split_conditions":[2.9E1,9.9E1,9E0,4.9E1,1E2,1.04E2,1.1E1,8E0,8.3E1,1E0,5E0,9.5E1,3E1,7E0,9E0,6E0,9E1,7.5E1,1.9E1,8.7354935E1,3E0,3E0,